<?xml version="1.0"?>
<opencv_storage>
<opencv_ml_ann_mlp>
  <format>3</format>
  <layer_sizes>
    200 128 128 128 35</layer_sizes>
  <activation_function>SIGMOID_SYM</activation_function>
  <f_param1>1.</f_param1>
  <f_param2>1.</f_param2>
  <min_val>-9.4999999999999996e-01</min_val>
  <max_val>9.4999999999999996e-01</max_val>
  <min_val1>-9.7999999999999998e-01</min_val1>
  <max_val1>9.7999999999999998e-01</max_val1>
  <training_params>
    <train_method>BACKPROP</train_method>
    <dw_scale>1.0000000000000000e-03</dw_scale>
    <moment_scale>1.0000000000000001e-01</moment_scale>
    <term_criteria>
      <epsilon>1.0000000000000000e-04</epsilon>
      <iterations>20000</iterations></term_criteria></training_params>
  <input_scale>
    1.0906154909578551e-02 -4.2431174686780326e-01
    7.8453970547117616e-03 -9.7628120948833164e-01
    7.8431833537477586e-03 -1.0034344691831918e+00
    7.8505439720737650e-03 -9.5747477295975092e-01
    7.8662317372123706e-03 -1.0797414431975907e+00
    7.8744867620833738e-03 -1.0934962288501093e+00
    7.8494193041709383e-03 -9.6076892283052284e-01
    7.8705759732624111e-03 -9.1977799559536888e-01
    8.5858868910454276e-03 -6.4931382891166112e-01
    2.4257252857057581e-02 -1.6612752885247720e-01
    9.7520650138444853e-03 -5.0446039164472689e-01
    8.0519982703680954e-03 -1.2589414324267238e+00
    8.9532101668854443e-03 -1.6920799797399186e+00
    7.9530983359209773e-03 -1.1820576440988835e+00
    7.9577968109319636e-03 -1.1862346657621523e+00
    8.0205100468740236e-03 -1.2364876603120816e+00
    8.3794201441260256e-03 -1.4444444444444442e+00
    8.5436864990896203e-03 -1.5213132285607525e+00
    7.9454990046383105e-03 -8.5096294339676304e-01
    1.8449772789299212e-02 -2.2313682347743877e-01
    1.1851906467856036e-02 -3.7821126668424021e-01
    8.4600200326675982e-03 -1.4829931687550146e+00
    9.1306986311619712e-03 -1.7602160821154049e+00
    8.0185115165345849e-03 -1.2350111437766569e+00
    7.8761253270347963e-03 -1.0960190972949420e+00
    7.9658607836393600e-03 -1.1932404261846981e+00
    8.4813455517682192e-03 -1.4929106764381042e+00
    9.1747519168849274e-03 -1.7767300290701242e+00
    7.8676376545936920e-03 -9.2402032408493806e-01
    1.9362428670628189e-02 -2.1160368475757951e-01
    1.2846627901003901e-02 -3.4069257193462343e-01
    8.1449872667577992e-03 -1.3185803529193247e+00
    8.4028287039730164e-03 -1.4558260850863420e+00
    8.1084522555747614e-03 -7.7153081562116077e-01
    9.4317874463446041e-03 -5.3462066042294465e-01
    8.6348159751297761e-03 -6.4043196542398240e-01
    7.9013298931141923e-03 -1.1294612453782746e+00
    8.4642465160535609e-03 -1.4849674087764366e+00
    7.8435521737791752e-03 -9.8976664373466006e-01
    1.8449772789299212e-02 -2.2313682347743877e-01
    1.3276652276753386e-02 -3.2694704563810695e-01
    8.0411850134243235e-03 -1.2513921866034174e+00
    8.4350609954194009e-03 -1.4712433388210517e+00
    8.8780958196266104e-03 -6.0155440674984295e-01
    9.0808198260364289e-03 -5.7427104579854382e-01
    8.7727548911395673e-03 -6.1742648923840271e-01
    7.9811178764534006e-03 -8.2919254097564288e-01
    8.3455041624273963e-03 -1.4276534749176513e+00
    7.8435521737791735e-03 -1.0103391605790293e+00
    1.7849170937499804e-02 -2.3147824824374746e-01
    1.4954389389621875e-02 -2.8327886186626583e-01
    7.9530983359209773e-03 -1.1820576440988835e+00
    8.3418227125756726e-03 -1.4258081718126128e+00
    8.9026837637722483e-03 -5.9803142277156951e-01
    8.5811133896139397e-03 -6.5020322026446198e-01
    8.5811133896139397e-03 -6.5020322026446198e-01
    8.2818188855760203e-03 -7.1682691805611409e-01
    7.9864177666914074e-03 -1.2102845667008921e+00
    7.8849579790985034e-03 -9.0192655055202453e-01
    1.6586940362015988e-02 -2.5136323337180799e-01
    1.7755077385438987e-02 -2.3284515771189984e-01
    7.9311598128758310e-03 -1.1614617034541450e+00
    8.2202949128312615e-03 -1.3619149746009895e+00
    8.4642465160535609e-03 -6.7341545281722137e-01
    8.4433049916910335e-03 -6.7790089591859926e-01
    8.4187972171306837e-03 -6.8329363584866099e-01
    8.2233926259909704e-03 -7.3333865897837192e-01
    7.8490650568739280e-03 -1.0396423056331954e+00
    7.9353420127227462e-03 -8.5796917841558340e-01
    1.6816160877864986e-02 -2.4748584194823584e-01
    2.2281639928698752e-02 -1.8181818181818182e-01
    7.9081886877156865e-03 -1.1373556970672700e+00
    8.1727786971255486e-03 -1.3349883739810420e+00
    7.9846391550087419e-03 -8.2723142971363428e-01
    8.0840005056247895e-03 -7.8098374027625994e-01
    8.0454719132982376e-03 -7.9719133129480824e-01
    7.9117667435662127e-03 -8.7617165423036114e-01
    7.8432653092584837e-03 -1.0057307059414879e+00
    7.9776443731096273e-03 -8.3115657732983583e-01
    1.8449772789299212e-02 -2.2313682347743877e-01
    2.7259527560726225e-02 -1.4696779573454397e-01
    7.8648678908622583e-03 -1.0772621905369617e+00
    8.1901505865137041e-03 -1.3449865293172805e+00
    7.8487211235072647e-03 -9.6297080710185423e-01
    7.8868530713173644e-03 -1.1113026654804528e+00
    7.9367587808351989e-03 -1.1669076288657101e+00
    7.9642245759857667e-03 -1.1918348303325899e+00
    8.0722760769561964e-03 -1.2726981099388481e+00
    7.9992057012011914e-03 -8.1941577715761804e-01
    1.9487000721723942e-02 -2.1012554492510330e-01
    3.3718779918228650e-02 -1.1791939034260535e-01
    7.8431833537477586e-03 -9.9657728602248663e-01
    8.1872184469126124e-03 -1.3433120186640104e+00
    7.8477511670138229e-03 -9.6628239012131634e-01
    8.0699707832287450e-03 -1.2711587407148113e+00
    8.3717603214066537e-03 -1.4406842740532690e+00
    8.0816291182549526e-03 -1.2788831724104823e+00
    8.2784378611911597e-03 -1.3932610920384723e+00
    7.9742184660524743e-03 -8.3312356185183090e-01
    1.9487000721723942e-02 -2.1012554492510330e-01
    3.8867595279526906e-02 -1.0194414990458771e-01
    7.8604248165491577e-03 -9.3577234523186792e-01
    8.0564135219338105e-03 -1.2619796324000605e+00
    7.9192221525796677e-03 -8.7007362472942440e-01
    7.8586775176946559e-03 -1.0649630704693072e+00
    7.9708399792097415e-03 -1.1974706769909356e+00
    7.9691684641198090e-03 -1.1960583412006103e+00
    8.1342697668191685e-03 -1.3121041949294565e+00
    7.9070180735874625e-03 -8.8025443491217681e-01
    1.7849170937499804e-02 -2.3147824824374746e-01
    3.7841865156342219e-02 -1.0476790667570175e-01
    7.8468738971233225e-03 -9.6960457800796984e-01
    7.9500239815223361e-03 -1.1792838430647903e+00
    8.2423023948026176e-03 -7.2781885089648490e-01
    8.1186133836235515e-03 -7.6776566967015980e-01
    7.9562190338381793e-03 -8.4399571510955407e-01
    7.8761253270347963e-03 -9.1239286109893092e-01
    7.8804080520156299e-03 -1.1023565092191006e+00
    7.8761253270347963e-03 -9.1239286109893092e-01
    1.5577487342332412e-02 -2.7011363051604403e-01
    3.7841865156342219e-02 -1.0476790667570175e-01
    7.8431833537477586e-03 -1.0034344691831918e+00
    7.9530983359209773e-03 -1.1820576440988835e+00
    8.5811133896139397e-03 -6.5020322026446198e-01
    8.8185254184757807e-03 -6.1036793789307364e-01
    8.3129845343137554e-03 -7.0862255308928834e-01
    8.2202949128312615e-03 -7.3426022817098213e-01
    7.8648678908622583e-03 -1.0772621905369617e+00
    7.8698255613806351e-03 -9.2083704632920327e-01
    1.3172862097642521e-02 -3.3014956091577202e-01
    3.5197730263698081e-02 -1.1283386673105499e-01
    7.8447973256241931e-03 -1.0207874417168648e+00
    8.0125904117702481e-03 -1.2305965285551368e+00
    8.6199067055866812e-03 -6.4309429684651265e-01
    8.9277188641106418e-03 -5.9450955304521913e-01
    8.4067933893386682e-03 -6.8599434057003528e-01
    8.2391120180461790e-03 -7.2873768783615878e-01
    7.8959152653888011e-03 -1.1229345092856942e+00
    7.8466020544772745e-03 -9.7071434959088998e-01
    1.2117806517148897e-02 -3.6727340438261574e-01
    3.4434024287998646e-02 -1.1540317282806403e-01
    7.9047098656068598e-03 -1.1333998854160419e+00
    8.5575643229800942e-03 -1.5275252316519468e+00
    8.4309671290435390e-03 -6.8059584361141756e-01
    8.7615659877081278e-03 -6.1919238487417305e-01
    8.4067933893386682e-03 -6.8599434057003528e-01
    8.1872184469126141e-03 -7.4442868529870587e-01
    7.9244154594654524e-03 -1.1547005383792517e+00
    7.8442899699603854e-03 -1.0172923478185769e+00
    1.1480979174840721e-02 -3.9481447242395123e-01
    3.3047096925505268e-02 -1.2038585308576918e-01
    7.9675087393357748e-03 -1.1946482603760060e+00
    9.0738242532870279e-03 -1.7386743529905559e+00
    7.9882083905800545e-03 -8.2527322055709773e-01
    8.7449691109091690e-03 -6.2184226066373538e-01
    8.7340275134779218e-03 -6.2360956446232363e-01
    8.0863852087999111e-03 -7.8003582119857884e-01
    7.9311598128758310e-03 -1.1614617034541450e+00
    7.8517616232634500e-03 -1.0480082742639296e+00
    1.1321148032312203e-02 -4.0251533175455156e-01
    4.7520648551693356e-02 -8.3093248324675240e-02
    7.8744867620833738e-03 -1.0934962288501093e+00
    9.0393225206294725e-03 -1.7254775360093000e+00
    7.9381869291114786e-03 -1.1682743106243780e+00
    8.2265056646654913e-03 -7.3241755147611831e-01
    8.5120239766920108e-03 -6.6357306915440428e-01
    7.8554642949045256e-03 -9.4548368253470871e-01
    7.9515553755614594e-03 -1.1806696608930101e+00
    7.8604248165491594e-03 -1.0686359829881675e+00
    1.2815566990771979e-02 -3.4173624778535683e-01
    4.2540491094276524e-02 -9.2981359106061534e-02
    7.9882083905800545e-03 -8.2527322055709773e-01
    8.6601133987447704e-03 -1.5723301886761005e+00
    8.1531740777584082e-03 -1.3234698058679035e+00
    7.9500239815223361e-03 -1.1792838430647903e+00
    7.9642245759857667e-03 -1.1918348303325899e+00
    8.1477019784910350e-03 -1.3202070702976674e+00
    8.3308811848114509e-03 -1.4202962294219981e+00
    7.9013298931141923e-03 -1.1294612453782746e+00
    1.3006093558714717e-02 -3.3544573301290787e-01
    4.4020907359503647e-02 -8.9802651013387441e-02
    8.4770416781144581e-03 -6.7072775769149628e-01
    7.9742184660524726e-03 -1.2003021469915496e+00
    8.0541994417071515e-03 -1.2604592006287643e+00
    7.9691684641198090e-03 -1.1960583412006103e+00
    8.0048684404679018e-03 -1.2247448713915889e+00
    7.9992057012011931e-03 -1.2203816766486861e+00
    8.1727786971255486e-03 -1.3349883739810420e+00
    7.9546528821184473e-03 -8.4498868429794793e-01
    1.1501583076227088e-02 -3.9384706619594756e-01
    3.8867595279526906e-02 -1.0194414990458771e-01
    1.0350871806528033e-02 -4.5851404710974464e-01
    8.1504309024176772e-03 -7.5652299636240872e-01
    8.0653995342627113e-03 -7.8858867846286929e-01
    7.8622661528720203e-03 -9.3255462020094015e-01
    7.8480641824522409e-03 -1.0360790103268236e+00
    7.9093703277173383e-03 -8.7821128478786059e-01
    8.3529188307720215e-03 -6.9863813100577188e-01
    8.6199067055866812e-03 -6.4309429684651265e-01
    1.3683518795689150e-02 -3.1503369844475193e-01</input_scale>
  <output_scale>
    5.2631578947368418e-01 4.9999999999999994e-01 5.2631578947368418e-01
    4.9999999999999994e-01 5.2631578947368418e-01 4.9999999999999994e-01
    5.2631578947368418e-01 4.9999999999999994e-01 5.2631578947368418e-01
    4.9999999999999994e-01 5.2631578947368418e-01 4.9999999999999994e-01
    5.2631578947368418e-01 4.9999999999999994e-01 5.2631578947368418e-01
    4.9999999999999994e-01 5.2631578947368418e-01 4.9999999999999994e-01
    5.2631578947368418e-01 4.9999999999999994e-01 5.2631578947368418e-01
    4.9999999999999994e-01 5.2631578947368418e-01 4.9999999999999994e-01
    5.2631578947368418e-01 4.9999999999999994e-01 5.2631578947368418e-01
    4.9999999999999994e-01 5.2631578947368418e-01 4.9999999999999994e-01
    5.2631578947368418e-01 4.9999999999999994e-01 5.2631578947368418e-01
    4.9999999999999994e-01 5.2631578947368418e-01 4.9999999999999994e-01
    5.2631578947368418e-01 4.9999999999999994e-01 5.2631578947368418e-01
    4.9999999999999994e-01 5.2631578947368418e-01 4.9999999999999994e-01
    5.2631578947368418e-01 4.9999999999999994e-01 5.2631578947368418e-01
    4.9999999999999994e-01 5.2631578947368418e-01 4.9999999999999994e-01
    5.2631578947368418e-01 4.9999999999999994e-01 5.2631578947368418e-01
    4.9999999999999994e-01 5.2631578947368418e-01 4.9999999999999994e-01
    5.2631578947368418e-01 4.9999999999999994e-01 5.2631578947368418e-01
    4.9999999999999994e-01 5.2631578947368418e-01 4.9999999999999994e-01
    5.2631578947368418e-01 4.9999999999999994e-01 5.2631578947368418e-01
    4.9999999999999994e-01 5.2631578947368418e-01 4.9999999999999994e-01
    5.2631578947368418e-01 4.9999999999999994e-01 5.2631578947368418e-01
    4.9999999999999994e-01</output_scale>
  <inv_output_scale>
    1.8999999999999999e+00 -9.4999999999999996e-01
    1.8999999999999999e+00 -9.4999999999999996e-01
    1.8999999999999999e+00 -9.4999999999999996e-01
    1.8999999999999999e+00 -9.4999999999999996e-01
    1.8999999999999999e+00 -9.4999999999999996e-01
    1.8999999999999999e+00 -9.4999999999999996e-01
    1.8999999999999999e+00 -9.4999999999999996e-01
    1.8999999999999999e+00 -9.4999999999999996e-01
    1.8999999999999999e+00 -9.4999999999999996e-01
    1.8999999999999999e+00 -9.4999999999999996e-01
    1.8999999999999999e+00 -9.4999999999999996e-01
    1.8999999999999999e+00 -9.4999999999999996e-01
    1.8999999999999999e+00 -9.4999999999999996e-01
    1.8999999999999999e+00 -9.4999999999999996e-01
    1.8999999999999999e+00 -9.4999999999999996e-01
    1.8999999999999999e+00 -9.4999999999999996e-01
    1.8999999999999999e+00 -9.4999999999999996e-01
    1.8999999999999999e+00 -9.4999999999999996e-01
    1.8999999999999999e+00 -9.4999999999999996e-01
    1.8999999999999999e+00 -9.4999999999999996e-01
    1.8999999999999999e+00 -9.4999999999999996e-01
    1.8999999999999999e+00 -9.4999999999999996e-01
    1.8999999999999999e+00 -9.4999999999999996e-01
    1.8999999999999999e+00 -9.4999999999999996e-01
    1.8999999999999999e+00 -9.4999999999999996e-01
    1.8999999999999999e+00 -9.4999999999999996e-01
    1.8999999999999999e+00 -9.4999999999999996e-01
    1.8999999999999999e+00 -9.4999999999999996e-01
    1.8999999999999999e+00 -9.4999999999999996e-01
    1.8999999999999999e+00 -9.4999999999999996e-01
    1.8999999999999999e+00 -9.4999999999999996e-01
    1.8999999999999999e+00 -9.4999999999999996e-01
    1.8999999999999999e+00 -9.4999999999999996e-01
    1.8999999999999999e+00 -9.4999999999999996e-01
    1.8999999999999999e+00 -9.4999999999999996e-01</inv_output_scale>
  <weights>
    <_>
      -6.0647894981197645e-02 3.5557938061620189e-03
      -2.5527840023524744e-02 1.9258884955083672e-02
      -2.7440176619874824e-04 -2.7998245734208653e-03
      -1.9393451846496584e-02 1.1951002824709079e-02
      1.7680893185981383e-02 7.3344859845449455e-03
      -2.4346644884002629e-02 3.6162282853125421e-02
      -4.0328905128520924e-04 5.9797295865580266e-03
      -4.4634427638176752e-02 -2.9053694314153507e-02
      1.7691252284965941e-03 1.8105746240566567e-03
      -9.1563567198103459e-03 -1.0690483172383129e-02
      6.6838312400377001e-03 1.6449368399889728e-02
      1.7408551105542829e-02 -5.0342203077586847e-03
      4.0252734528428008e-03 -1.3461691307657021e-02
      -1.0227172586957349e-02 8.1774498412154790e-03
      -4.6585740673280212e-03 2.3225986412538435e-02
      2.1934919371034317e-06 1.1541475020059636e-03
      2.9469093662295293e-02 1.7869355916367763e-02
      1.5730977159690320e-02 3.7104880191580980e-02
      -1.2644203793776574e-02 -3.3101265192473557e-03
      -5.6314199136796575e-03 3.3324809860813737e-02
      -3.7085316296983341e-02 9.3428347951279526e-03
      -5.5003477863929352e-03 1.0638868177690350e-03
      -9.4575450223656158e-03 -3.3325094468826831e-04
      3.1267070424195395e-02 -3.3273970820463211e-02
      1.1936294886230910e-02 2.6446128768557512e-02
      1.6331187591799162e-03 2.9472653032063287e-02
      -1.5464039742371231e-02 -3.3817914570471438e-02
      2.0718247841582948e-02 -9.3801777008144412e-03
      -1.1851984090397276e-02 -8.6821234532302761e-03
      1.9825442092301446e-02 -3.4414502988230115e-02
      1.6021460400333586e-03 -9.6121890930267340e-03
      2.7581885773704740e-02 4.6453917876639441e-03
      1.8038326163469041e-03 1.8841404155359486e-03
      -2.6921453225965497e-03 -1.2160503641124136e-02
      -2.2630981245515422e-02 -6.9419160610100583e-03
      -4.5906813439566966e-03 5.6272396517896180e-02
      1.5806014167566714e-02 -1.7848693564170029e-02
      1.3041804583850132e-02 -3.1446163197853150e-02
      -5.4556859166114873e-03 -1.7248193998696797e-02
      -2.8477166495502367e-02 1.1902997706278208e-02
      -4.7115514106227507e-03 1.8161762550781429e-03
      3.2945771504091739e-02 -2.7817570980408393e-02
      -1.7967058825189380e-02 -1.1847248413663398e-02
      1.0152204004358329e-02 -1.6492833323959613e-03
      -8.2467660539665907e-03 -1.6117611082326191e-02
      4.0178291728730680e-03 -1.3503990593601259e-02
      7.4793257477157992e-03 1.0374684599486910e-02
      -1.7081479847948719e-03 5.9106244802971733e-03
      -2.9771925154689061e-02 5.1950920434775212e-03
      3.4471793640149025e-02 -6.7300621605205641e-03
      -1.2768757715779573e-02 -9.7449158634640189e-03
      3.0043305606749584e-02 -1.1840296491049472e-02
      -3.1180350955753856e-03 -1.3031987968362958e-02
      -9.6845099683848437e-03 2.1218493477984440e-03
      -1.4005436533772050e-02 -1.7495951183245796e-02
      -7.3920892844871553e-03 -1.9087196287274757e-02
      -5.6176869031533015e-03 5.6791745989566650e-03
      -1.2478126623662798e-02 -2.8795991512921634e-04
      -4.2033926699355916e-03 5.8561683717152924e-03
      1.2740824573385580e-02 -2.5554818361049541e-02
      -9.2445268287022793e-05 3.2927794998002247e-02
      -1.5790584857080205e-02 -1.3802813177393987e-02
      -3.4285596032154045e-02 -2.9734239746732432e-02
      -1.4109608878425066e-02 -1.4660987075683050e-02
      -5.6322513815554850e-02 9.4542156285962187e-02
      -1.0370566859588859e-01 4.1948769970168220e-02
      1.6307588838705860e-02 -3.4147956558270430e-02
      1.8013418026837506e-03 3.2131177370463733e-02
      5.7648167355577089e-02 -1.4449634459419622e-01
      -4.5694464937253432e-02 -6.7851527342694274e-04
      -7.3403424554234528e-02 1.6641377559172047e-03
      -1.8272198110503921e-01 -6.9498302742542845e-02
      -1.5332237681433606e-02 -2.2749548568954878e-02
      -1.0080759938343352e-01 -1.2490231791481564e-01
      -1.4097678797671933e-02 -2.4335472409306721e-02
      -7.3768219457837209e-02 -1.4115670756319859e-01
      -6.6779107807795487e-02 -1.8671819260431610e-01
      -5.5731845927701910e-02 -5.6166057914077729e-02
      2.4243439428350489e-02 1.5625280434269764e-01
      4.5980283784242251e-02 -7.9286270454790415e-04
      2.2216487268542161e-02 -4.5479117908272089e-02
      9.6101782309896393e-03 4.9766590651975653e-02
      -2.2928332944684895e-02 -5.5937214736338052e-02
      1.0497560986329835e-02 -1.7493791941965101e-02
      -1.0013762127108924e-01 9.2857840291323226e-02
      1.1452490363953347e-01 5.1145291864073232e-02
      -1.2029005134539796e-01 -3.5575923100538816e-02
      5.6465995594882058e-02 -3.9704310947770036e-02
      1.3662662487187513e-02 1.1031408335418100e-01
      5.8427946243228016e-02 9.2738286259444053e-02
      3.6791922634273129e-03 1.8493092410229634e-02
      1.1697597405968949e-01 -3.2123835543208752e-02
      9.0227409843254211e-03 -2.3534056275205722e-03
      4.2463400275567019e-02 -7.4460643452634742e-02
      -6.9693430332792905e-02 -5.7325293984545181e-02
      9.4306968691235768e-02 2.5682398292445497e-02
      2.3130484978150626e-02 7.0552683900394514e-02
      2.8827193089936056e-02 2.5306566410638408e-02
      -4.8701461565136946e-02 5.7669025230113302e-02
      -7.3324518612896128e-02 8.6383287776596193e-02
      -2.9623555610450037e-02 -1.6204994589791171e-02
      2.5097428174205121e-02 5.3015881443540441e-02
      -5.7300976026017053e-02 -2.9102443383441187e-02
      -5.6832864319507251e-02 1.3474857204790650e-01
      -7.9902093072907895e-02 -1.3906292814848367e-02
      5.9930811426939012e-02 -6.6223559649037173e-02
      5.1380956482271353e-02 1.5108295879532618e-03
      5.5908984662872523e-02 -7.5517506527411099e-02
      -4.3615112423103550e-02 -4.1388837848915843e-03
      -3.1933303981768177e-02 -4.4453703138465750e-02
      -1.7988062469109840e-02 3.3127480286685218e-02
      3.1815438301940689e-02 -1.2902706095749098e-02
      -1.4898522870388167e-01 -2.3419477109961118e-02
      1.0417106460240018e-01 -3.5156429312466870e-04
      -5.6953298707268327e-02 -8.9848335181121911e-02
      -3.1863802997780341e-02 -3.6966416419682781e-03
      -5.9836664957575253e-02 -4.0105091043345156e-02
      3.4812507451160005e-02 1.5518152603951641e-02
      -6.7899469835774148e-02 2.0169622299201110e-02
      -4.5246106474023551e-02 -1.5271325542002596e-02
      -3.2737173803339362e-02 -6.4531363797872596e-02
      2.0309173832341428e-02 1.9049472680120964e-02
      5.7605522792014710e-02 -7.2101519466722747e-02
      4.5091513263820639e-02 -2.4859387468980997e-02
      -4.3236536260861103e-02 1.0543164897398702e-01
      -3.8204376132484875e-03 -7.4242466992355913e-02
      -9.0490374118856007e-02 -9.4087392742295439e-02
      1.2918538375668566e-02 -8.6404583846928881e-02
      -8.6774010094658016e-02 6.5516090451347361e-02
      -9.5879248262573297e-02 3.7364182547970713e-02
      -1.0369186174437370e-02 -7.7390683195130913e-03
      -3.0330348343605117e-02 3.7964960924051568e-03
      1.3902019979590721e-02 -3.9843734001797922e-02
      3.2065338438675303e-02 2.6253141987503371e-02
      -8.9601881071707974e-03 -7.2977039602840736e-03
      -1.1218347375297776e-03 -2.4317134581079121e-03
      -5.1667431549940739e-02 -9.2002496381178960e-03
      -2.1635048952481785e-02 4.4158347472461536e-02
      -2.0233766777344432e-02 -2.1204729172620965e-02
      7.6552837312807737e-02 -2.9005012246680624e-02
      -7.9185253579406849e-03 -4.8454108283303855e-02
      -4.3275258646065261e-02 -2.0096360086904547e-02
      1.1395187969363899e-02 5.4343419175271405e-02
      -1.0626521621244082e-03 -2.0676323096474828e-02
      5.1708735818658848e-02 6.6924735286035167e-02
      1.3899619812322215e-02 -1.9460637549206374e-02
      -1.0294792262209956e-02 2.9359853718323489e-02
      3.1437516151876718e-02 -6.4358652386510727e-03
      -5.3370795864666011e-02 8.5912322220782211e-02
      1.8464235973611652e-02 2.2279958962604235e-02
      8.0666602132350431e-04 6.1859072951096036e-02
      2.9030448600637252e-02 -7.2034858556212535e-03
      1.3909914118017012e-02 2.1534534706279338e-03
      -5.2465647332054846e-03 5.5111774060008382e-02
      -1.0619282477789278e-02 2.7184014770332419e-02
      4.7622621197717166e-02 -1.5238937082253240e-03
      3.7149806866234925e-02 2.7284579549030571e-02
      5.7691595620710946e-02 -7.8915778099209188e-03
      2.4896867898176592e-02 1.4051344523862561e-02
      1.1557738138968533e-02 -7.4711391758309799e-03
      2.0976561331054876e-02 4.9608990541341512e-02
      -2.6013750013579882e-02 2.6396835058740423e-02
      9.6157818455714500e-03 2.6515929601724230e-02
      1.1474599828574076e-02 7.2280591366224070e-02
      -3.7204461544148210e-04 -3.4903333630898849e-02
      2.4913072194802603e-02 4.3430644848343324e-02
      -5.5943651375131916e-02 -4.3809057378269269e-02
      -6.2302916925249613e-02 7.7591610099171676e-02
      -2.0391963908179267e-02 1.0863775287269756e-02
      1.5090858017077982e-02 -4.8222709057247071e-02
      -1.8698495580904150e-02 1.3599582583832751e-03
      4.3513280527724137e-02 -2.9184515553418069e-02
      -3.0653624601556299e-02 -2.8636668553343136e-02
      -1.8585284390248213e-02 -2.8891230195293285e-02
      -1.7755236694770821e-02 3.5640060743607462e-02
      8.0252443144398319e-02 4.4215569976941801e-02
      -4.2779319172855816e-02 -7.9436050954044320e-03
      7.5874642299261871e-02 4.6480938726687578e-02
      2.0953539445646464e-02 -1.5434253478787525e-03
      -1.7832280574836084e-02 -9.8848981225689355e-03
      -7.8894852143823642e-03 2.3534587053731626e-02
      5.3688176470888804e-02 1.1198195006083125e-01
      -3.7348198124908236e-02 -2.7330763965918336e-02
      4.2797994497409172e-03 -7.9414592347936651e-03
      8.5009828127842729e-03 -5.8167140146114335e-02
      4.2370473240517625e-02 3.4553365347683641e-02
      2.3815761209751759e-02 -1.2238653065283505e-02
      6.0168373440501612e-02 4.8955724600365375e-02
      -2.3767109815615195e-02 4.5665928388716366e-02
      -3.6190486881277587e-02 6.9997924920457135e-03
      2.1051105398983316e-02 -5.9430568930485844e-02
      3.0020897705336409e-02 -7.9890498612581906e-02
      -1.4693861983358891e-01 -4.5510505726425642e-02
      -4.9914955924063018e-02 -3.7784315810792730e-02
      -4.6625441819056451e-02 -7.5142222115976332e-04
      8.8210405721025689e-03 5.7553866935230083e-02
      3.9266662162675672e-02 -2.5942373770813661e-02
      1.0776044961016606e-01 -1.9331661306132817e-02
      -2.6110448518553400e-03 1.2238210394499722e-02
      7.7115125619373906e-02 -9.0324942304202127e-03
      -4.2189273371216203e-02 9.2898457238098607e-03
      2.5775274708102883e-02 6.4836973310770540e-02
      -2.0348927568291274e-02 5.2180783187766207e-02
      1.2272130478901776e-01 4.0316282885295519e-02
      4.2778781145524455e-02 9.0583745106444152e-02
      -6.4520098368995110e-02 6.4558553555794512e-02
      3.6090799025808439e-02 2.0374361060510285e-02
      -5.9171190125546579e-02 -3.3093631427510317e-02
      -2.2943332545875036e-02 1.4504516092741165e-01
      4.2807340531983411e-03 2.0116605467074441e-02
      3.4431388005129071e-02 3.0395360519988712e-02
      -2.6815745277611085e-02 -2.0938925222089344e-02
      -8.1552839629263602e-02 4.8186287869217567e-02
      -6.4255711650325925e-02 2.3917602481599798e-02
      6.0910000834067966e-02 3.1226963922996835e-02
      4.3961463520640898e-02 -8.3972617679582653e-02
      2.9484407477317051e-02 1.6510868776323163e-02
      -1.0364237348522252e-01 -1.3331478495781458e-02
      3.1434170245111027e-03 -2.0432223820536409e-02
      4.7492990933684830e-02 3.7267867978443238e-03
      5.8590388276087105e-02 -3.8355416666747133e-03
      1.2867378716389978e-03 -6.1520353890194886e-03
      1.1701031951486217e-01 5.4669235279837199e-02
      -1.5484322523268538e-02 3.6912006949616845e-03
      -5.3616078294184341e-02 -2.8581742463950371e-02
      1.9362318718227987e-02 9.1658391448585404e-03
      -2.5086285538901874e-02 1.4666335133278047e-02
      3.6801871425539222e-02 -2.1770915169743221e-02
      9.4617514369153954e-03 3.2465620568569567e-02
      -4.9605045545081372e-04 -2.5125828717347726e-02
      6.1813838606050435e-02 4.6716269844117107e-02
      -2.9888879479944421e-02 -8.8060920217451055e-03
      -7.3809275726350460e-02 1.6185526251006045e-02
      6.1092082078240607e-02 -2.7079163361553717e-02
      -3.3926737574294361e-02 4.4272493481314741e-02
      -1.6533267413000697e-02 -3.0352663479813111e-02
      5.1629780005186823e-02 -1.2464263402492560e-02
      6.3696229898986878e-02 -2.2770950129117923e-02
      -6.4888040057273777e-02 -6.7793952887900577e-02
      2.8621080089025995e-02 -2.2650026666536507e-02
      -6.5206545117442644e-02 -3.5149080603275089e-02
      8.5548451738025708e-02 -7.4614971557244282e-03
      4.8210830750491936e-02 4.3927746066111661e-02
      6.0767514749577582e-02 3.0832380149056333e-02
      5.0951600552083962e-02 1.9846118177922208e-02
      -2.2599387051115707e-02 5.1257192760251681e-02
      1.5846536307495988e-02 -4.4026570888525629e-02
      5.4253254981777490e-03 9.1909531613443146e-03
      6.9677264265767522e-02 -2.2902182107529385e-02
      3.8047901400056296e-02 2.6174271159540310e-02
      4.2268745145114078e-05 -6.7044154058499943e-03
      4.3358934465515302e-02 5.1738390580677369e-02
      -1.5652183345838660e-02 -3.2490690366768003e-03
      -2.7075706078121403e-02 5.9487983628783894e-02
      1.1879037547755435e-02 3.8960427318302467e-02
      -3.4385616959875596e-02 -6.0680240880807267e-03
      -1.6917009084877363e-01 -1.0749967375271069e-01
      2.4968179613764758e-02 -5.1329826730297679e-02
      -8.3953491737358249e-02 2.0021825562248200e-03
      -1.1738756837657356e-02 4.4106977304597998e-02
      2.9220366319524845e-02 6.6226659922614617e-02
      9.1168447724760793e-02 1.3950952302620586e-02
      3.1831871459186603e-02 4.1763858587154486e-02
      1.1211412995471035e-01 3.3342691336443679e-02
      -3.5024199304269740e-02 -2.6263723303626040e-02
      4.1634096523386614e-02 8.8787050884901714e-02
      -2.0231864339526645e-02 7.1293001075875786e-02
      1.6040847153513127e-01 1.2410171468845568e-01
      6.7542993575875954e-02 1.8799649978683070e-01
      -3.2853730454325596e-02 8.3877358742353150e-02
      1.0699228207142640e-02 -5.9255898884056392e-02
      -1.0150661484747353e-01 -1.4261303291542285e-03
      1.5529882548925837e-02 1.6193589941562544e-01
      1.0027106234609779e-02 1.7901213931694165e-02
      6.5663408903824078e-02 6.1519911476559878e-02
      -2.7842273857564402e-02 5.7612691181706168e-03
      -1.4575918379088270e-02 1.5421262139257215e-02
      -1.0612485005371272e-01 1.2077486152368169e-02
      9.5194725709700334e-02 7.0045215937222460e-02
      3.8587230081495935e-02 -1.2392904084163169e-01
      9.9201349880654460e-03 -1.9215967344446451e-02
      -1.0343550170637794e-01 -2.3049008826141904e-03
      4.0181936684636974e-03 -4.7062147031780549e-02
      -2.1376559100429886e-02 4.8611091636666650e-03
      3.3926973073584485e-02 3.1010801349445850e-03
      -2.0367728910947357e-02 3.6797102494830758e-02
      1.0901108181064678e-01 7.9162559084924325e-02
      -8.9513316785357552e-02 -1.4318104263934508e-02
      -3.9944260692596226e-02 -6.1282831807410044e-02
      -1.9205795923743687e-02 6.9839263514748402e-03
      2.8045304251726796e-02 -3.7208383861618059e-02
      7.2524187996739597e-02 -4.7315559686703833e-02
      3.4132287158464711e-02 8.3878253555600794e-03
      2.5958758512645234e-03 -6.8984369067896428e-02
      5.0659027891824832e-02 3.1976953230903341e-02
      1.2902451471010941e-02 -7.1242113121885664e-02
      -1.2596995365961922e-02 1.4610059009084606e-02
      6.4896144914592474e-02 2.4763923274088648e-02
      -7.9167610163727739e-02 -6.7851432946143273e-03
      -3.2879685666987478e-02 1.6219966391862631e-02
      4.0159206667609686e-02 -2.0343828158859330e-02
      1.2944812335865447e-01 1.8716839549420188e-03
      -2.7011537430126943e-02 -6.9816508970884206e-02
      7.2113558936675089e-03 1.4522812934100437e-02
      -4.5854411409334245e-02 -1.2814446314707512e-03
      1.3985925914957162e-02 3.7350092314690471e-03
      5.0300857457017477e-02 1.0439888173000646e-01
      9.6907962965329011e-02 1.0874278489959718e-02
      6.4576375507159903e-02 5.7755867389295425e-02
      -6.6089949466808406e-02 2.0724266550447394e-02
      9.1369848141869773e-03 -1.2329400302430198e-01
      4.5962546757580540e-02 1.3908026455726257e-02
      2.4077828225865346e-02 1.6188583406177501e-02
      -9.2159549758944975e-05 1.2245774578595811e-02
      -2.6364726029331993e-02 2.2484803943227955e-02
      2.4485447587068804e-02 7.4475219401288432e-03
      2.7347733728761051e-02 -5.0816586113707214e-02
      1.2199487942884136e-02 6.7365243290130591e-02
      4.9590240519169326e-02 1.9330409166059860e-02
      -5.7491334463161618e-02 7.1073921275106824e-02
      -1.1414959022480455e-01 -5.1398368258197345e-02
      4.3107022425824794e-02 -2.8582704278830539e-02
      -4.1250081659157910e-02 8.3121919887753967e-03
      1.1554804203608954e-02 4.1570537443327274e-03
      5.7670294225034020e-03 4.9472899727721842e-02
      7.5860634010967862e-02 -6.1327699830667675e-03
      1.3686553946282124e-02 3.2277002263283332e-02
      8.6067511106227373e-02 3.4954302664524643e-02
      -2.2369985502651873e-02 -1.7506572717228594e-02
      2.4601741107546610e-02 9.2239267984088838e-02
      -2.1445686006530764e-02 4.5159176892901626e-03
      1.1223214562439882e-01 3.6750205429188637e-02
      3.0864847848029359e-02 1.2429846887121758e-01
      -2.3899984817567211e-02 -3.7303080340284102e-03
      6.0153320662950710e-03 -5.4006112386672592e-02
      -3.4327876569228817e-02 -6.5572724127931366e-05
      3.1633204912084323e-02 8.2072461356340595e-02
      -1.3177960244462631e-03 4.7745803009053133e-03
      2.6393269695845236e-02 6.6520846428060512e-02
      -3.2401537759736400e-02 -6.0022933041567481e-03
      2.1143124755259455e-02 2.3137117235312612e-02
      -2.7049362439459275e-02 -8.2333664966734981e-03
      6.1657638406353008e-02 5.0987918377317448e-02
      6.2524794279224718e-03 -2.9622264316768898e-02
      2.8103828404182879e-02 1.6652902110315382e-03
      -5.0391795489613006e-02 4.2154449756105244e-02
      6.2168446314100189e-03 -1.1332849248803739e-02
      -2.2966078188429901e-02 -1.4750123068750107e-02
      3.4862921495209823e-02 2.0650507952882546e-02
      -1.8623481331217918e-02 4.4705908588323108e-02
      6.4338227622644073e-02 4.6920969305617732e-02
      -6.1980442801312520e-02 -2.6931512754362688e-02
      -3.4366855751884309e-04 -1.1908053974708618e-02
      -2.2341719119309409e-02 2.2289860671249412e-02
      3.7837226321834332e-02 2.6344540071485943e-03
      5.8984854971721283e-02 -4.9186981380005650e-02
      4.7526293825173347e-04 -3.6074229998544143e-02
      1.0106127370576305e-02 -1.4290014945202033e-02
      2.1713977431523095e-03 1.4255229144712719e-02
      -5.9876515311678338e-03 -2.2675147494346064e-02
      2.0642206920875639e-02 1.5073401576324742e-02
      4.3328411479927435e-02 1.7873864812671850e-02
      -5.4378123690050358e-02 -3.0578349541937966e-03
      6.7480561029479311e-03 3.0978442626183053e-03
      -1.2979635388039746e-02 -9.4259688169326464e-03
      3.8522597305422741e-02 3.2387302007275213e-05
      -1.6349083939501117e-03 -4.3272666317254856e-02
      3.0795970105286910e-02 1.6472451084285793e-02
      -3.2895994602483325e-02 -1.3834872440415260e-04
      -7.5699371611695774e-03 3.7917610873460392e-02
      2.3993527210738642e-02 5.1900765861215302e-02
      2.7466781348515785e-02 -2.7004936547588496e-03
      3.7834061889114659e-02 3.6432724049760286e-02
      -3.7546264912121527e-02 6.9601582661784987e-03
      -3.0566261798708947e-02 -6.4590335622030953e-02
      2.6971578860625338e-02 9.2303894837133984e-04
      2.2315694495289608e-02 -5.3005544689711821e-03
      -1.0352961148404654e-02 6.9077404355061536e-03
      -1.6439469340526099e-02 1.4472873313501427e-02
      5.1813201309852232e-03 -9.0572962785614796e-05
      3.5419988644057711e-03 -6.3795221876273732e-03
      2.2096520009577129e-02 3.9488627647137536e-02
      7.7858959580284590e-02 4.3658024452900721e-02
      9.2942643375069859e-03 3.6363388363415551e-02
      -1.2679447595925367e-01 4.4692960210768802e-04
      -1.4114316157641076e-02 6.9035152290287350e-03
      -3.8373969287183743e-02 3.0910058125204452e-02
      2.1486764333698291e-03 1.9327137828460628e-02
      3.0352622887317746e-02 4.2664994020984032e-02
      6.2998474387382847e-02 -2.8028975742862249e-03
      3.2160761908794015e-02 5.3875998381709603e-02
      4.9748321881124311e-02 -2.8997968133275976e-02
      -2.0740778443472632e-02 -1.8898791618727765e-02
      -2.9167410414994909e-03 4.2080649099299358e-02
      -2.2456126951555036e-02 2.9465538806174668e-02
      8.8704303433879791e-02 3.5149116636642233e-02
      1.8848395150594437e-02 6.3187485044849362e-02
      -4.0379518954086362e-02 9.0681406155473810e-03
      1.0568608933191767e-02 -1.7001977519936155e-02
      -4.5963112415637573e-02 -8.6427461985817758e-03
      5.3953216692691465e-02 9.0785481722946551e-02
      1.6010362518208417e-02 4.6503401007810030e-02
      2.2794215691806549e-02 6.4891023198999587e-02
      -3.5499369440551785e-02 5.2753945394492094e-03
      -8.6301415553733055e-03 3.6205237786617557e-02
      -3.4734533099334310e-02 -5.2727168913781607e-03
      6.4112010096538483e-02 3.3555626888946158e-02
      2.6900720302350394e-02 -7.5139336329061598e-02
      1.5418250069114497e-02 5.0114728461097841e-04
      -3.7260924379715933e-02 6.2843411719644901e-02
      -2.8616859123765355e-03 6.4696929287157614e-03
      -9.6543291816371841e-03 -7.1954291313056848e-03
      -5.9230968418509198e-03 5.9415398936600245e-03
      -4.7551767067323990e-03 1.1880168728791149e-02
      3.6907946713009968e-02 5.0147371705959141e-02
      -6.5219314571923329e-02 -1.4659977514733852e-02
      -1.5191960410192554e-02 -6.8674144453106387e-03
      -3.9460649985062726e-02 2.1727234707175958e-02
      -1.8534703586076548e-02 -9.8509380849302105e-03
      2.3141113372831049e-02 -7.0902850444595576e-03
      1.1822501708092196e-03 -5.1182275523266256e-02
      2.6088924247486833e-02 -3.5368831599716023e-02
      -4.6409021895550068e-03 -1.6530591124186447e-02
      -5.1422578526992023e-02 -1.2215970849345044e-02
      2.6746232958397859e-02 1.1288757344760248e-02
      6.0583733061907341e-02 -3.8149083616348793e-03
      -4.3702303662040816e-02 -3.5404947817671541e-02
      2.5708994022357622e-02 8.0452249449263213e-03
      -5.3920625187217144e-02 -1.8570369533996368e-02
      6.0290626339118254e-02 -2.2283975160152972e-02
      -2.9252577104659623e-02 -5.1390279987301151e-03
      1.3217932686633800e-02 2.2132852620352254e-02
      -7.9416121341543910e-02 -1.2206856666653814e-02
      2.5478486735680962e-02 1.6762257841292608e-02
      9.1138435817450479e-03 3.0607268771808482e-02
      5.7670733484082574e-02 -2.0145577357123533e-02
      1.9820037002387342e-02 2.0881449668688372e-02
      -5.4462024248475308e-02 2.4553289399037011e-02
      -6.9872113028346991e-02 -7.3777239562441588e-02
      2.4195583748832374e-02 -1.9089294538875524e-02
      3.1895456415638547e-02 4.2492563553681827e-03
      2.1064513629295439e-02 4.1572305882922038e-02
      -7.3504917364497629e-03 2.6203302232685324e-02
      2.9638228710491529e-02 -1.9510324824780916e-02
      3.4927111500926223e-03 4.7075141865054536e-02
      -1.7784055257926392e-02 2.5744259389198335e-02
      2.2746557088254436e-02 3.6631633093217673e-02
      -8.0521066294963924e-03 -8.4609456212197814e-03
      -6.2099219244010059e-02 1.9141191790909701e-02
      -3.4013291455676622e-02 1.3575801034496507e-02
      -2.5251022743811979e-02 -9.0609731258605039e-02
      -3.1430329772716800e-02 1.0769226408148324e-02
      5.0090622350158667e-02 -4.0957785813958252e-02
      -1.1589147507627426e-02 3.5032238826320464e-02
      -1.7427000670061948e-02 2.8084769902429731e-02
      -8.0038335941413644e-02 -7.0538945237199627e-02
      -3.1241716188995579e-02 1.8322551012108394e-02
      -6.8588175225581208e-02 -8.3510617038572307e-02
      -4.0671684261257515e-02 -3.4626776987721153e-02
      -4.2390045327251456e-02 -6.3380017483604764e-02
      -3.5401846207888922e-02 -8.8046504522614519e-02
      -2.4135019253348454e-02 -5.2848384186379861e-02
      2.3076942259227435e-03 6.5475376082486852e-02
      1.0761348063150709e-02 -1.8916388468694832e-02
      2.8273557359762440e-02 9.2844323844950183e-04
      -1.8834751147456814e-02 4.1897772887786004e-02
      4.4482449751850469e-03 -1.2116616366170058e-02
      -2.9330675105626734e-02 -3.0862772224713907e-02
      -4.6888395570451970e-02 6.5434233676358963e-02
      3.3831133227080867e-02 5.5017927848565525e-02
      -3.7986877323719567e-02 3.3313045746620272e-02
      1.3711963320948839e-02 -7.3149120327791028e-02
      3.5581336423166861e-02 1.7281508729287134e-03
      5.4603608472467924e-02 6.7075059698069900e-02
      -6.5400765771696087e-03 1.7248196541435598e-02
      2.2956657013031744e-02 5.8507059142630059e-03
      2.5582825184043357e-02 3.7848029296281543e-03
      3.4879721344203496e-03 -4.1005224285197255e-02
      -4.7773560428482388e-02 2.2334177944056659e-02
      1.1283560811910513e-03 -1.4732260084492634e-02
      4.1322703390538514e-03 2.9278536249585936e-02
      5.9732724874529353e-02 4.0473231958093707e-02
      -5.7874443800956334e-02 2.1548672107542580e-02
      -2.9881728354232064e-02 2.8047644489882659e-02
      -5.5601958888581937e-02 -2.3635436392528995e-02
      4.2929218139775328e-02 1.3373978469771577e-02
      -4.0041890806535425e-02 -3.1205901362127381e-02
      -3.3140355020936818e-02 5.9742110937100502e-02
      -3.6666293768256031e-02 -5.3157852897197620e-03
      3.8061387592668125e-02 -1.6881459907066278e-02
      8.3941942373366666e-03 -7.0112651291682959e-03
      3.9427460344936306e-02 -8.7275996837361536e-03
      -3.3781334926247027e-02 2.5096464570881234e-02
      2.0664107554546986e-02 -6.0904724880943262e-04
      -2.7603848609769315e-02 1.5351132896166124e-02
      1.5530080461627195e-02 1.1315033404496955e-02
      -8.9969942244025422e-02 -1.8811052063435023e-02
      4.8426345352722826e-02 2.8582254903386662e-02
      -4.0633245938487626e-02 -2.1592217144582947e-02
      -4.6397234089844662e-02 1.0063805722310456e-03
      3.1274336962083473e-03 -3.7103945615206579e-02
      -4.7429641240239193e-03 4.0566154331556303e-02
      -3.1706549650156408e-02 1.7199636646305291e-02
      -3.1415397031966108e-03 3.0315414481118130e-02
      2.1250660107765933e-02 -1.1365901350245762e-02
      2.3386419657673269e-02 -8.1154777243743030e-03
      2.2399684773679495e-02 3.0366284788983667e-03
      3.2407290072844187e-02 -1.7735808894175677e-02
      -4.8664675818734335e-02 4.6457324957686799e-02
      -1.5652945448276816e-02 -6.5825574865957664e-03
      -6.2898776709652077e-02 -7.3879244869810803e-02
      1.7481080434471618e-02 -6.8978888264951785e-02
      -6.4883533949785896e-02 -2.4184721406698896e-02
      -2.2813152358688259e-02 -8.9531896293371690e-04
      -2.4763393762195680e-02 -6.8208987929551615e-02
      1.6495549577690656e-03 -3.6462409490248419e-02
      5.0877663551784434e-02 5.0580907160099921e-03
      -7.8450515579095603e-02 8.5050362518129141e-02
      -6.8870724383005358e-02 2.7567136662359866e-03
      -1.3435992806002134e-01 -1.5487796143609964e-01
      -1.6880538553334663e-02 3.3238729766123569e-02
      -8.3377211390701630e-02 -1.2338143788789635e-01
      -4.8908692465735190e-02 -2.7064230754680011e-02
      -7.1354245813159384e-02 -1.0952248387378917e-02
      -2.7185162077547918e-02 -1.0178871097814440e-01
      -1.2567409695051268e-02 -5.8181675868852804e-02
      2.0069650802517461e-03 4.4922063605628490e-02
      4.0695212008990178e-02 -2.8982103805928479e-02
      1.8107976045843514e-02 -4.0603470852304665e-03
      -2.5181589698715680e-02 4.5964437604247996e-02
      3.2986420108245554e-02 -2.0323384482184462e-02
      1.3544037149204028e-02 6.7479382922792323e-03
      -7.2325979633273141e-02 4.6115051012087294e-02
      2.3953515452000110e-03 2.6832047667169904e-02
      -4.9258378253222691e-02 3.4211135247882274e-02
      5.1214176724078114e-03 -8.8005069961033744e-02
      6.5384516371699564e-02 2.0582097543675244e-02
      1.3382518092615553e-01 4.7662421684054108e-02
      2.7458998333744381e-02 -3.0615790839524135e-02
      -4.6704103001339412e-02 3.5111007654782159e-02
      2.9003894314565418e-02 -4.2731032868324720e-02
      2.5400008516721579e-03 -5.1115161175454782e-02
      -1.4904623903387909e-01 1.9192591370630271e-02
      -3.1417892200065509e-02 -4.1713632618852074e-02
      1.6421840030704904e-02 -9.1605843578563741e-03
      5.5053051253502433e-02 -9.3392908440724943e-03
      -1.1714520208876665e-01 -1.8946789406482763e-02
      -9.9228786738325719e-02 3.9145184787419476e-02
      -3.7453147094548847e-02 -1.7794523984752324e-02
      -8.8993522248357240e-03 2.8804545558929972e-03
      -6.4314251112681520e-02 -8.7449484015726317e-03
      2.2884724128192546e-02 -2.9003080220619767e-03
      -1.7467652683162794e-02 -8.3279257719005004e-02
      4.6045140343370455e-02 -4.5158382374703307e-02
      2.0601150633399470e-02 1.0686655037286708e-02
      3.4131292119493943e-02 5.5144793299477995e-02
      -2.3410894652699100e-03 3.9514154559958110e-02
      1.0582409516552175e-02 3.4367024668474203e-02
      6.8673644077437788e-03 -2.5191664329664191e-02
      2.3982663079828378e-02 -2.4221167512385473e-02
      -1.3989143226045297e-01 -2.9905478090158557e-02
      6.4499926315052303e-02 1.9621310236711913e-02
      -1.1299318905439882e-02 -2.6366533959511107e-02
      -3.9678568329267500e-02 -1.2940898786029741e-02
      1.1646727608519326e-02 -7.9487703209716473e-02
      -5.3118963541868729e-02 7.0394278545168942e-02
      -1.3541467592500731e-02 8.3317089511045200e-03
      -5.3339727037613444e-02 2.1609100081767165e-02
      8.6288160682048733e-03 -3.5955628327763826e-02
      -2.5939150902457297e-02 -1.6582849036329641e-02
      -1.2820549201465860e-03 6.2173669581040397e-02
      -5.3249920785461823e-03 1.2704827405355662e-02
      -4.8092360470608185e-02 5.9872819299282926e-02
      1.0861439240449532e-02 -5.0204537896945942e-02
      -1.3939604911410436e-01 -1.0779951616753861e-01
      3.8117628428695524e-02 -2.3486167144684530e-02
      7.5117476761375826e-02 1.5187256874218617e-02
      -7.0115137146641651e-02 6.6065574619384185e-02
      2.4222702466726535e-02 -1.1798828275791158e-03
      -3.9997118559371631e-02 -3.9957282562297677e-02
      -3.6938398450360718e-02 3.3098482075812059e-03
      -2.1482871178059842e-02 2.9868211468756050e-02
      1.7477608007744352e-02 -2.4665505542276523e-02
      -3.2912770971874741e-02 -2.1696105246785065e-02
      2.6960510882000348e-02 -1.7959453408314677e-02
      -1.7980141886590147e-02 -3.7343784174143246e-02
      4.0764018165919298e-02 -1.4435124505513710e-03
      -5.0243942691328244e-02 -9.9549204739760467e-03
      1.2478891285798613e-02 -1.4882142763616525e-02
      3.9732062775838704e-02 -2.1561132602686942e-02
      -8.0270143858511611e-02 1.8142565331605465e-02
      2.3030687075655268e-02 1.8454394411514849e-02
      8.1346271146690297e-02 -3.9328826464879417e-02
      3.8436703060951767e-02 -6.3018739101489682e-02
      -2.5249794299510797e-02 -4.0331441581072158e-02
      2.5156926544368050e-03 1.3709130980640052e-02
      -3.2011734206293538e-02 -1.4872964694584824e-02
      1.7463672623778147e-02 -5.1929264362453237e-02
      -3.1129850854901362e-02 -4.7743265525341139e-02
      -1.5354325044871714e-02 4.6870573260431113e-02
      8.0417493218012375e-03 -3.1169507445674881e-02
      7.9919309845139327e-02 3.1001200393517476e-03
      -4.3226221121875380e-02 2.4546883085470334e-02
      -1.7979859236890588e-02 1.3139970215503687e-02
      8.3669332724902747e-04 1.6351606408821499e-02
      7.7458566648749200e-02 -5.6292471667889504e-02
      -4.6380970339742228e-02 -1.3706874710470846e-02
      -2.1798932471546067e-03 9.3095583045793174e-03
      6.3985120950444632e-02 5.7270563682286094e-03
      -6.0953393404557465e-02 2.7390506553963585e-03
      -1.0650205654146740e-02 -1.3780886518687221e-02
      -2.1770710828997970e-02 5.7364925766472064e-02
      4.8736765257443922e-02 -6.8447166100482501e-02
      -2.4473169019169436e-02 -9.7813102737487542e-03
      -4.3640476712672904e-02 -5.9488635087469988e-02
      -6.9699974402220893e-02 -3.7007513191485383e-03
      5.3392470786261415e-02 -4.4094969509146008e-02
      -8.4268999700720229e-02 1.0213566401849887e-03
      -2.4666359302004306e-02 1.1102311491654887e-02
      7.1794059515187927e-02 4.0150059547166349e-02
      3.7618372940430448e-03 -2.2394102736578984e-02
      -4.0518254097476732e-02 1.8339300137522347e-02
      4.9244569636201121e-02 2.6396433817328351e-02
      -3.2239901154657302e-02 2.8512035894932005e-02
      -3.7189705751640621e-02 1.2917047158046705e-02
      -2.6330121275216337e-02 -7.7256619712685335e-03
      3.0899154895970903e-02 -1.5502915312766546e-02
      -1.0099373398001998e-02 -5.9366136050349270e-03
      -5.0739759237068416e-02 -1.6426243148513885e-02
      1.8898379479323598e-02 4.3370876935809162e-02
      -2.0612158387680119e-02 1.6833289250147993e-03
      -2.4447644613991227e-02 -4.9281824130485534e-03
      -3.7549232493099188e-02 -1.2642040080364096e-02
      -4.8985359602801315e-02 3.9980981313342143e-02
      -2.4451858518304680e-03 5.6099021942395411e-02
      -5.0325585052361250e-03 5.8114836314334180e-02
      2.2019847829549185e-02 -2.2119359092614491e-02
      -5.8309406104477768e-02 -4.6659916723070419e-02
      -1.7910713076268705e-02 -4.7294855098304535e-02
      3.3527266977509386e-02 -5.4244411722574548e-02
      -6.8346634268205350e-02 -4.7617568039715142e-03
      -2.7032841349147133e-02 -6.0656394019259676e-03
      -3.4431300056304105e-02 -2.3138115660096412e-02
      -9.4520631326656373e-03 2.5055663619092085e-02
      1.6890776400043227e-02 -2.3517316073909070e-02
      4.4556906932460578e-03 2.9995587828510792e-02
      -2.6749943220856477e-02 1.7215434165164734e-02
      -1.7501200631395042e-02 -1.5181297459117787e-02
      -2.2407087127032651e-02 7.9351254262138449e-03
      2.7998192692888753e-03 2.8997455389754043e-02
      -3.9853357241764181e-03 -5.4873406770482545e-03
      6.6295522890845726e-02 -2.0524271562409050e-02
      3.9262276809872787e-03 1.5863223126465563e-02
      -5.0925050533097913e-02 -1.3924548449924074e-02
      1.6972154665684209e-02 1.3756403709387686e-02
      -3.1264602905577817e-02 -2.4659501252873844e-03
      1.1670885358000649e-02 4.0155651725147366e-02
      -5.7514139962719099e-03 6.2168154376668956e-02
      3.1692902527051543e-02 -8.5049239190125268e-03
      -2.4119278738487439e-02 1.0750420601164120e-02
      -5.9427662747246306e-02 5.2750810355098238e-02
      1.3229568083886241e-02 3.7176309667247949e-02
      2.1383753878742003e-03 3.4793659742545738e-02
      6.1539984384783850e-02 -1.7478982782276952e-02
      -7.5824239533648450e-03 4.5899159733444127e-02
      -1.3298204955879956e-02 6.4276649821021575e-02
      6.1285141797630394e-03 -3.2215223850739071e-02
      3.7678598475949239e-02 -1.1087841942902266e-02
      4.1924636456193404e-02 -2.1392556246454114e-02
      -2.0580738366556980e-02 -2.0079615237159542e-03
      1.3570628641697466e-02 6.6940908360267233e-03
      5.1881373999329003e-02 1.4774813377604838e-02
      1.6265286011786544e-02 2.5645348777165036e-02
      2.3319325563366154e-02 2.3502773212557074e-02
      -1.1919969224472049e-02 1.5014707763231203e-02
      6.7963693953790617e-05 2.8582364418023837e-02
      2.6599719346511057e-02 1.6397316688425223e-03
      1.9194128803216012e-02 1.9424875479854539e-02
      -3.6632073796407566e-02 4.9341902015897004e-03
      -1.9025681980037967e-02 4.2370756692329280e-02
      -4.2925222787141080e-02 8.3516831340389806e-04
      5.3928617221805190e-02 -2.2937797128057297e-02
      -4.0831429921193215e-04 9.4038896624906720e-03
      1.8261216933784462e-03 -2.3313757224692783e-02
      -2.3076012222532295e-02 -1.8205927376871895e-02
      1.8072486777188809e-02 -1.2216599936960008e-02
      -1.1046116556633892e-02 -6.3926378666494506e-03
      3.8729644245350393e-02 -3.2993760122416458e-03
      -4.7545011856722261e-02 5.8040825724502544e-04
      5.6336701164873333e-02 2.6072936432061669e-02
      -7.5704122369879491e-04 1.3090119874899393e-02
      2.2469523189319912e-02 -3.5941536006006657e-03
      -2.1406207362566779e-02 -1.7260164156056610e-02
      -6.7061326384561552e-03 1.0792784663251228e-02
      -1.9287874009483633e-02 -2.7231100525737600e-02
      3.0625820885143866e-02 2.1811433502514285e-02
      -9.3803888645464153e-03 -6.4613076876440215e-04
      8.0518614430967455e-03 5.4343401414664607e-04
      1.8233016613352186e-03 -3.1667897868792400e-02
      9.8162569023922692e-03 -1.1841719086464036e-02
      -1.8135310884397304e-02 5.0934244008642458e-02
      9.7538884271064618e-03 2.9903392116024444e-02
      -2.3083796566520830e-02 -3.7681461524459753e-02
      -6.2195146738184765e-03 -2.7953607763857892e-03
      -1.0461636274359476e-01 1.2743134209264623e-01
      -8.5105716527886024e-02 3.6116755956922569e-02
      -7.3024610145532264e-03 -6.0782864278490110e-03
      2.5444099964849268e-02 4.9432549362369925e-02
      3.7073656009997472e-02 -1.3223815031658562e-01
      -4.7817941540065967e-02 -1.3177567633072589e-02
      -8.5710533864472346e-02 3.8767518320136876e-02
      -1.6311669811227184e-01 -2.5078129130118011e-02
      -5.8241094134369991e-03 -8.0068579026826930e-02
      -9.6411725111814964e-02 -6.8659804802280622e-02
      2.0676559251486541e-02 4.3581885499303970e-03
      -3.5676691946464223e-02 -1.7462512794594404e-01
      -4.5222353876543810e-02 -1.3282420940954801e-01
      -5.7766784679279370e-02 -4.0218244069963840e-02
      7.1531188442090277e-02 1.3503302144855434e-01
      1.2079191115207683e-02 9.8149059189594403e-03
      6.3061223411126466e-02 2.4465628566322801e-03
      -7.6984703964869195e-03 3.2639932691945338e-02
      -1.3861720762932411e-02 -9.9205786530223494e-02
      -3.3019997086326767e-02 -4.4130238800302889e-02
      -1.1311910663274551e-01 1.3209716582697870e-01
      1.3407449887329034e-01 6.8649339942312509e-02
      -1.2358312281675682e-01 -3.5203747863236871e-02
      7.6044211414493648e-02 -7.7914667425528855e-02
      -2.3194472085822933e-02 1.4860864846117641e-01
      2.2169787631631892e-02 1.2240227167540538e-01
      2.3119151853194866e-02 3.9131670349753199e-02
      1.5243108618135043e-01 -7.4097308199325737e-02
      2.4893660362162735e-02 8.4619405492698946e-03
      -8.1278499233537055e-03 -1.5733027219200349e-02
      -4.2370648420538719e-02 -7.5382285660618178e-02
      1.2494524448939469e-01 4.9924307273714739e-02
      7.6778358249364562e-02 6.3801564963148413e-02
      -1.2885420424486116e-02 4.6056882866696930e-02
      -8.8503285849760322e-03 6.7187647249966065e-02
      -1.5685020189487857e-02 6.0172353528226433e-02
      2.7483036092037054e-02 -9.3443655611614856e-02
      3.7570689651299789e-02 2.0534537533695597e-02
      -4.4413908608669318e-02 -3.2968758465564164e-02
      -6.8047734499087645e-02 1.5867579989803285e-01
      -1.1596830368575435e-01 -1.0224682699233994e-02
      6.2929828726156115e-02 -4.5753178692883083e-02
      9.8875763156182836e-02 -1.7157716735412738e-02
      5.6291859859670827e-02 -1.1922732869071972e-01
      -9.6107001029773181e-02 -2.9617769587467854e-02
      -1.6361969866279007e-02 -6.4622366623842187e-02
      1.8784220973892679e-02 5.6931606427406044e-02
      1.1182311515132498e-02 -2.1424616741888242e-02
      -1.6314974028952389e-01 2.6230145223769995e-02
      9.4202242957104623e-02 9.1762185338028178e-03
      -8.6223301191253973e-02 -1.0137503579799106e-01
      -2.4703482084923789e-02 -1.3941846900025159e-02
      -9.3624887321081776e-02 -2.9491910941055258e-02
      1.3686426741407440e-02 -2.8568231701379111e-02
      -1.5758819618021316e-01 -1.3108253557705047e-03
      -3.3670521054543477e-03 -2.6103334754364996e-02
      -3.9025703583559355e-02 -5.5810760865750750e-02
      2.2864582900712044e-02 2.5041845473695055e-02
      8.9696099952541672e-02 -1.5735872952873736e-01
      4.0904310837456256e-02 -6.2072640075554769e-02
      -1.2978069024084448e-02 1.3117984136440822e-01
      -6.7960817750602181e-03 -5.9961291326961180e-02
      -8.3454395033655815e-02 -6.2037806659577990e-02
      -3.3138754599866559e-02 -7.1549687885812993e-02
      -1.1994538088569896e-01 2.0294079321364795e-02
      5.7914622759261021e-03 -1.1104006648830636e-02
      -6.2058355535547172e-02 -2.6300076999478252e-02
      2.0833005048510066e-02 -1.9571684731664193e-03
      2.7754242131792388e-02 8.3498372742225976e-02
      -3.6457120304026647e-02 7.7198438239866468e-02
      -5.8158915491422186e-02 4.2089379385633445e-02
      -2.9427849989762524e-02 -6.2874066138478818e-02
      -4.9102219312797200e-02 -3.4827981648988572e-02
      -5.2639804726992180e-02 1.3191850362580793e-02
      7.7856650505882415e-04 -1.2201456142831319e-02
      7.3573436777775447e-02 2.8367543841969753e-02
      -1.4910666218473265e-03 2.5270410226520670e-02
      -6.9387954556891810e-03 -3.0505095347771693e-02
      1.6116261701909940e-02 -3.2792254813951774e-02
      -4.4197621564053928e-02 1.4068875299827855e-02
      6.9514980317632480e-02 8.0082714313866668e-02
      -5.5726466301049193e-03 3.3948522164277205e-02
      4.5636170167955716e-02 2.3270305996136143e-03
      -2.1246977840753918e-02 6.6321502166493754e-03
      8.6132422017109189e-03 1.0070292166160758e-01
      1.9116229397533682e-03 1.8174984826134753e-02
      2.2837732459225664e-02 9.4944568573946703e-02
      6.6918060052029308e-03 -1.1345546748314367e-01
      4.4299779407803511e-02 5.0547193540042029e-02
      1.7373953848736030e-02 7.6222286630200656e-02
      1.8319031580126193e-02 -3.6133107786157012e-02
      -8.2662450009631985e-03 1.5914208000863228e-03
      5.6401748122203790e-02 -1.0758155790349182e-02
      -3.1882416732226547e-02 2.2200045757300262e-02
      2.0741869431094920e-02 2.7835169349163198e-02
      -4.2915208731405868e-03 -2.8271479365471214e-02
      3.3357204736990401e-02 -1.9557222604902821e-02
      -2.7463541681315949e-02 3.6016623163646504e-02
      -2.4971350762529612e-02 -3.2092396259061941e-02
      -2.0158661854343906e-02 6.2788774539001446e-02
      2.0439246002830862e-02 -6.6629879310952003e-02
      4.3922758784724757e-02 -1.0897684698972857e-02
      -7.6885347187769140e-02 -3.4012524868327371e-02
      2.2311094160835078e-02 2.0652450634807508e-02
      -1.9760279692937116e-02 3.2589475981831162e-03
      5.1616008278086531e-02 -1.6284603369688146e-02
      2.8290949721623007e-02 -5.5673937509572995e-02
      3.4934775024728797e-02 -6.4371822200841389e-03
      -3.5238589922648486e-02 -2.5738385896453130e-02
      5.0948201165725862e-02 7.7913247886168858e-03
      2.3140370601983241e-02 3.0053530709472382e-02
      5.2224653397801746e-02 9.7629229330751504e-03
      -8.7274661605163853e-02 2.5254899046106203e-02
      1.5965427488248713e-02 3.4383769179407567e-02
      -3.9115176260579795e-03 1.8230247605802146e-02
      -1.5760999147390274e-03 -2.9429454669671461e-02
      -1.4811402038695784e-02 4.0211260552284510e-03
      -7.0647683000790246e-02 6.8414749740492206e-02
      -4.2165163562917003e-02 -6.7056056662016444e-02
      3.5275895377318185e-02 6.3211076139229969e-03
      -2.0787212124087065e-03 -1.5799127796540146e-02
      -1.0017347522817906e-02 -5.4709681393317316e-03
      6.6651767736841299e-03 -2.3696356196145633e-02
      -2.5941091616350541e-03 -8.7287460602390749e-03
      -1.0014929343436252e-02 6.7273643982545414e-02
      3.6438572831489144e-02 1.6986474883520872e-02
      -5.7619657173520189e-02 -8.5748736213888385e-02
      -9.4482308533447648e-03 -1.4160345093224265e-02
      -1.2530455924702810e-01 7.2400565741331429e-03
      -1.0547161234743240e-02 3.5010266619422878e-03
      -3.7948836893546577e-02 1.4202236030918905e-02
      8.8053594861614553e-03 3.8760967077526742e-02
      -1.5567257999986834e-02 -3.1518622127133730e-02
      4.3383436527218815e-02 -2.7785382483063287e-03
      -1.3744961375084873e-02 2.3936771829788327e-02
      4.4488159552735398e-02 6.4928923648399821e-03
      -1.2736534841903393e-02 -7.1433009434430303e-02
      -1.8707560624452838e-02 5.5933999561226376e-02
      4.6235058908062801e-02 2.8291082329435807e-02
      6.7886882875567128e-02 2.8167412056776128e-02
      3.1153687171558371e-02 7.0843754309006468e-02
      -1.0254768689238860e-02 2.8761358319839610e-02
      1.5121044442998569e-02 -1.1401211710887765e-02
      -7.4783694519727412e-02 2.1360132141169826e-02
      5.6824919928920505e-02 1.0599630817092508e-01
      2.0421662815394006e-02 -1.7051612701646596e-02
      1.1697111578056732e-02 -2.8186704069574200e-02
      -3.4621199615493863e-02 -5.4395272825084285e-03
      -5.5963188832398467e-02 5.0292801219993549e-02
      2.8047934957586621e-02 -6.8611233572455224e-03
      1.2252527939925436e-03 2.6960584753839608e-02
      1.6783057466600693e-02 -8.5229288409661971e-02
      7.3020469978276967e-03 5.5927441751493459e-02
      -5.5447122628801714e-02 8.9136874273270123e-03
      1.1368793503021427e-02 1.7819931059868503e-02
      3.6170116481332462e-02 -3.8246274366293645e-02
      4.0325147364196096e-02 2.1906320646428234e-02
      -1.9972347099791610e-03 3.2114727641425186e-02
      7.5857224299434631e-02 2.3315888170901054e-02
      -8.7823526018350993e-03 5.7306858092033798e-03
      6.0895721792779328e-02 -7.9882724042522543e-03
      -6.0994976253493913e-02 3.0954523370155938e-02
      1.2697993123506245e-02 1.1434374439641085e-02
      4.4093676084589119e-02 3.0229868935896766e-02
      6.0115314506381717e-02 -6.9280489878141421e-02
      -2.9238207525631031e-03 -2.4529297052556125e-02
      3.2183983959701977e-02 -1.7847942107761462e-02
      -1.5067458163335518e-02 -5.0424864199134214e-04
      -2.2553881870412764e-02 2.5474509384131941e-02
      6.0409995834882447e-03 1.9050271521328290e-02
      9.4516427333607520e-03 -1.4187212771656325e-02
      2.4593511334391312e-02 -4.1998454349555923e-02
      5.3476316261401192e-03 -4.3685046000738949e-02
      5.2166898534609644e-02 -8.8324840217509689e-03
      1.8898705735672257e-03 -7.5497971179119506e-03
      -2.2988773970916698e-03 -6.8260714490248975e-03
      -7.6367389161330859e-02 4.0456034064271111e-02
      5.4050878450647268e-03 2.2612537799398813e-02
      3.2878345591518358e-03 1.0677848976870935e-02
      3.8258791723209042e-02 -9.5743811738352915e-03
      -2.7909471606731517e-02 4.2575131922845018e-02
      -2.3805352045251513e-02 1.5106482380200117e-02
      -6.1482300068130692e-02 -9.0332978664632066e-02
      3.9432743790485718e-02 -3.7712247589185722e-03
      1.2118647273997168e-02 -9.3061512475081931e-03
      1.4446929578781128e-02 9.4142721222579603e-03
      3.8000805638926306e-02 -6.1835592351718476e-02
      1.7603248854952572e-02 -7.6897864654293579e-03
      2.7091184387710847e-02 2.5167967129463776e-02
      -1.3103965908622344e-02 1.3478202135944659e-03
      -1.5382734710248923e-02 -1.4587522756655828e-03
      -4.0173285594501021e-02 -6.3160225022003361e-03
      -1.7201011727671742e-01 -7.9542703811530557e-02
      1.9957846414752504e-02 -6.6336282000418426e-02
      -6.9067649501834111e-02 -4.9407777975931308e-02
      -1.0365311140738836e-02 1.0167712691792782e-01
      4.3144794970176627e-02 -8.3942932485632657e-02
      1.7350269498969584e-01 -6.7440388065760054e-02
      1.9717502432789365e-02 1.3053557490272795e-02
      1.4395055648739194e-01 7.0251221626355456e-02
      -4.0363945092480251e-02 2.1707754342553356e-02
      3.2820959439981576e-02 1.2375709393097845e-01
      -5.9028883659154605e-03 7.6151839765480608e-02
      1.3087748788709752e-01 2.6591434157200885e-02
      4.6643684562236006e-02 1.2601851480464810e-01
      -7.5819013266537366e-02 9.6241047546764796e-02
      6.5541295265597710e-02 2.6825014077772082e-02
      -8.3985627305500701e-02 -3.5375893336817989e-02
      -8.0606331460314401e-02 1.7369926296105961e-01
      -2.2946495380638053e-02 -1.9690540365257504e-02
      6.2203031102518833e-02 -1.8396765194097310e-02
      -7.7307553465534612e-02 -6.5864350248426531e-02
      -9.1538352484905258e-02 6.8603060485500786e-02
      -6.1479437495993758e-02 8.6066114476686967e-02
      2.2317977567461157e-02 -5.8276549649153063e-03
      6.4218485374889070e-02 -1.1359294924708169e-01
      2.4290195326040979e-02 1.6642192228635690e-02
      -1.4739824053622369e-01 -3.5385901784046575e-02
      1.1424340167240263e-02 -1.9144287220999128e-02
      9.0916443577487627e-02 -5.0314168240681882e-03
      8.2935535718755907e-02 -4.8311629726656207e-03
      1.6070490092260529e-02 6.8087329971556670e-02
      1.5844664157929386e-01 6.8726703276190779e-02
      -3.0333221870197834e-02 2.8917936210196650e-02
      -5.1748574368384592e-02 -5.2265325773006042e-02
      5.3255714424630694e-02 7.7666904990986704e-02
      4.1492656500610313e-02 2.4257165786672981e-02
      6.5395009760407657e-02 -1.2777914304923649e-01
      -2.1729913327177336e-03 7.1870451588270989e-02
      7.6500480337407086e-03 -3.0445307356132559e-02
      1.3832656655377087e-01 1.1399133479514910e-01
      -8.5076874984985583e-03 8.0948069185439245e-03
      -1.2735804974080198e-01 3.6724838959652353e-02
      6.5909412555868588e-02 5.5625601613220249e-02
      -2.7113100021610211e-03 8.4350620222603673e-02
      -6.9079247361647972e-02 -4.4603868384223914e-02
      8.6811927669922281e-02 -3.3506783241748841e-02
      8.1757722949357958e-02 1.4387029963660331e-03
      -8.4271424029031594e-02 -7.4535087369639624e-02
      -1.3091739049854943e-02 -5.4438651961768475e-02
      -7.1194741095577121e-02 -1.4493537850407025e-02
      8.9126355660267595e-02 4.1797339841266518e-02
      3.6849846916377042e-02 7.6719027008387120e-02
      6.7548129184727898e-02 5.2608637153376443e-02
      5.5262969484392271e-02 8.4240507167233150e-02
      2.1392944897754933e-02 -1.5555630531930162e-02
      6.0661842049011393e-02 -3.6434976906889363e-02
      3.1523874917675811e-02 7.1566177623644534e-02
      7.3543259789959736e-02 -2.3799953315902386e-02
      6.6970144549766505e-02 4.9944606404060581e-03
      2.9817105430421920e-02 -4.7002983582094052e-02
      7.1820167654324640e-02 4.7904108120601883e-02
      -2.8312305949798455e-02 -1.0789995050354394e-01
      -3.4576806993415178e-02 1.0931550635600204e-01
      4.1444575041204204e-02 5.8346626867806894e-02
      -7.2220775028488254e-02 9.2323122928442747e-02
      -1.7454068725612457e-01 -6.7080681937949138e-02
      1.0294417574956147e-02 -6.9423076886563809e-02
      -6.5333617592707463e-02 -1.5824036725231517e-02
      -2.0827109935488679e-03 7.2974810609528123e-02
      3.5147423365266467e-02 -3.8175552003083729e-02
      1.3503982017654975e-01 -4.5610779179907010e-02
      1.9159929488343282e-02 3.0841017170428784e-02
      1.1225919101543091e-01 5.7494823842857742e-02
      -6.7688317113678079e-02 3.7491007975995389e-03
      3.7217644370618613e-02 1.2365432766959869e-01
      -4.4560610207549992e-02 4.0459683627358044e-02
      1.4435139401141886e-01 3.1207318486653247e-02
      4.2683748077339469e-02 1.3697560630284966e-01
      -9.2683649180005934e-02 5.8693456968349905e-02
      5.6982362799929867e-02 1.1440185532658976e-02
      -7.9971355661656501e-02 -3.6097004286065069e-02
      -7.0958259513647176e-02 1.4449181255818325e-01
      -2.4773213998181897e-02 2.5320152212245362e-02
      5.7437684976200006e-02 5.0949112548996124e-02
      -2.9542626578557548e-02 -3.1685661185519007e-02
      -5.7292888162460462e-02 7.5769634734733332e-02
      -4.7963796863038179e-02 6.5465626802174742e-02
      2.7951337439971722e-02 3.6336756075517444e-03
      6.3394208327825358e-02 -6.6078246483287625e-02
      2.8760052960371537e-02 -3.6824573360167011e-03
      -1.2752181057741188e-01 -7.5944571794923556e-03
      1.8620865326817355e-02 -4.0316529409255314e-02
      4.5154235439251851e-02 -2.6605537925979871e-02
      6.3314348853779040e-02 -1.3150678833182808e-02
      5.0777186209721081e-03 2.6371931813998051e-02
      1.3587118623061034e-01 6.1252250153610140e-02
      -4.8506193723391572e-02 -9.5768504232475807e-03
      -7.9148799780609652e-02 -3.9556885975341599e-02
      3.1276126679373517e-02 5.0820303044333111e-02
      5.0703371745564239e-02 1.1644401165649090e-02
      6.4332992884227461e-02 -1.2200629491659379e-01
      -2.7906373530147844e-02 5.3465951884458331e-02
      9.6330923814294915e-03 -1.9709057478427716e-02
      1.2427160148379245e-01 8.9305776369044826e-02
      -9.3010594581584925e-03 1.0898107456775739e-02
      -9.0456498770657034e-02 5.6031776614083845e-02
      7.1538035921293472e-02 3.2647155929156783e-02
      -5.0079400186455757e-02 4.7451446171584609e-02
      -6.1159561200977042e-02 -1.1225633510401492e-02
      4.6711305268991685e-02 -1.8793351962383752e-02
      5.7383437233128727e-02 -1.3928035495923176e-02
      -7.8369085897845275e-02 -7.3185879773780702e-02
      -7.6620770619831259e-03 -3.6216254677687083e-02
      -1.9633879020690137e-02 -2.4928182783748299e-02
      8.6940830992770279e-02 1.2835620459797057e-02
      1.3813272890499485e-02 6.4631017206029998e-02
      7.9224622275277198e-02 2.5210374988623122e-02
      6.1088246095209624e-02 7.3692046227280775e-02
      5.4338906332851563e-03 -2.5347742345804173e-02
      4.0728367701626293e-02 -7.2462328937628051e-02
      4.4745032371582207e-02 4.8215683727578305e-02
      6.5848532248147934e-02 8.6769125099986251e-03
      6.5131528902648964e-02 2.2215260962608566e-03
      2.4033159814468030e-02 -1.6589672219709684e-02
      5.0244106738892486e-02 6.1547412675530648e-03
      -3.0824327542557633e-02 -6.8781661775554823e-02
      -9.6237866176360608e-03 6.5856539184645999e-02
      6.6298051060469862e-02 7.4442794347401059e-02
      -5.1204715793630742e-02 6.8083359388358369e-02
      -5.9603376984573894e-02 2.9085117224204337e-03
      1.8370889221142758e-02 -1.6756094766206233e-02
      -1.2822022457986040e-02 8.3846283722588139e-03
      4.7375500704668991e-02 -1.6061014450856868e-02
      1.4536563855600147e-02 -5.1010557817331654e-03
      2.6192407722567972e-02 1.1358526445786889e-02
      -3.0725242632147185e-02 -5.9833641924378162e-03
      1.7201085354814967e-02 -5.2732178316312932e-02
      -6.0577358004548942e-02 2.5818893662977314e-02
      -1.6756144384075838e-02 2.5139147908820277e-02
      -4.1878189010340378e-02 -3.2867479224171367e-02
      3.4408854580492358e-02 2.1326594138623544e-02
      1.3272516329746787e-02 3.9545261782241117e-02
      -2.6870937718476595e-02 -5.7601837457311650e-02
      7.9139984031956021e-03 4.9662457014119626e-03
      1.1981273589574499e-02 -4.6866654308735385e-02
      -7.6400859427095697e-03 9.3818098182902251e-03
      -6.6487356806118189e-03 1.2383965375318003e-02
      9.6510676738610704e-03 3.8915189270626940e-02
      1.4599890805798073e-02 1.1578851048464516e-03
      -4.8275490535026402e-02 4.9244184609212954e-02
      1.2042245317583545e-02 4.0343879734116542e-04
      2.5669380913891215e-02 5.3855792225393884e-02
      -1.0412699992391233e-02 -6.7274209403916951e-04
      3.3706864890838899e-02 -2.5091715386745473e-02
      2.2150635371616192e-03 -6.3320446779276110e-03
      1.8134569127209288e-02 -1.4156533515924563e-03
      -3.1192366135071700e-02 2.3831469349285335e-03
      3.6239563322709098e-02 -3.1916105209437468e-02
      2.5222696098095257e-02 -1.4881681752786591e-02
      1.6074140239864920e-02 3.2473424565195690e-02
      -3.6094664449594575e-02 -3.8535830421827677e-02
      -5.1098295591302079e-02 5.2784681316084478e-03
      -2.0682969140220456e-02 1.2281372338118844e-02
      -4.0479438173152665e-02 1.4079132859657914e-02
      -3.4539864293868863e-02 2.6152302417170339e-02
      -2.4205937039577137e-02 1.8586870634671446e-02
      -1.0574318614394741e-02 3.3426819501273700e-02
      -5.7720045247343470e-02 1.7909871031396470e-02
      -1.5584559310899441e-03 6.9290512331204772e-03
      -2.2339674965723415e-02 -1.0054793438573481e-02
      2.0338512319262380e-02 -1.3992434719583446e-02
      -1.3710458588508927e-02 5.0626452005159674e-02
      1.0308593796229620e-02 5.1487420281948922e-02
      4.8989458568818511e-03 3.1360742783691234e-02
      -3.4194523621203343e-02 -7.2350428916853234e-03
      -1.4836951087805543e-02 -2.9630844886032646e-02
      5.0627686158194594e-02 -3.3585008853357794e-02
      -5.4885764655809757e-02 -4.6800799691321775e-02
      3.8469233907304695e-02 2.4853499169723261e-02
      3.5399437902067267e-02 -1.1191746090358258e-02
      1.1155192194160633e-02 -2.0252225819889359e-03
      4.6474669839594834e-02 -1.3530510295453978e-02
      6.2683212860807523e-03 2.4096172413340906e-02
      1.2328545497222418e-02 -6.1556083801183482e-03
      -2.5407654127858472e-02 1.0683720389986936e-02
      4.6317502798715035e-02 -1.9689737026746729e-02
      1.5177770086814453e-02 1.2714551634300514e-02
      -2.6472744984896233e-02 6.0616516698828941e-02
      -1.6582906473285282e-03 2.2379986663093165e-02
      -1.6777250700295104e-02 5.2545901452077791e-02
      -1.3363207759763926e-02 -1.9455205841427813e-03
      -4.1639144838637406e-02 1.9932797061517578e-02
      3.3256827897770312e-02 1.5041864440809016e-02
      -3.8648188408546891e-02 9.0597426785002082e-03
      3.5123551101109825e-02 2.6441619151605259e-02
      -2.5370536205793676e-02 -7.2122098278808389e-02
      -7.8081001897397804e-03 -6.8877447121813831e-02
      1.9793667115532005e-02 6.4624666101016734e-02
      -2.9159119718083791e-02 7.6052760248304860e-02
      -3.1293868957722425e-02 1.3449594070282879e-02
      -4.5961911228184542e-02 -7.7535614222595625e-02
      -1.0821385076142285e-02 2.1051862289861663e-02
      -6.7617022108118763e-02 -3.9563443943456088e-02
      -3.9122221705226667e-02 -5.7241579802262389e-02
      -1.4867264228038295e-02 3.2734476215929481e-02
      -1.7868390022336270e-02 -2.9779795287910801e-02
      8.2934363466226312e-03 -8.6904744124242095e-02
      -8.4567546029969288e-03 -7.8457939819711799e-03
      3.4838194020665826e-02 -1.5521182053465936e-02
      4.5202417724145495e-02 -5.0336133787003507e-03
      -1.3153401033929167e-02 2.3480345701616338e-02
      1.3299921383220835e-02 -1.3254906727033708e-03
      -2.6119587420739818e-02 3.0265256929305298e-03
      1.5157540483824856e-02 4.1140407478910936e-02
      6.4304852893359446e-03 -5.0168962435585759e-03
      2.2371893268465236e-02 6.9664048430012421e-02
      -5.6220033153272564e-02 -7.5043679424976945e-02
      5.5040290825192878e-02 -2.3684353424397564e-02
      9.6910982191632328e-02 4.2909442758460238e-02
      4.2331041859214663e-03 3.6273926300510440e-03
      -7.2299868897147179e-02 3.4787048191185825e-02
      1.1148862011539534e-02 -6.6783593900863227e-03
      -1.7974834208368207e-02 7.0406156244567052e-03
      -9.0299207652586824e-02 3.6161405333754421e-02
      -7.9932879165382636e-02 -3.9770975734057246e-02
      4.3758774573974171e-03 -2.8611508321457076e-03
      1.4846315620265201e-02 1.7468224370604357e-02
      -5.5427841253072055e-02 -3.3984595318974103e-02
      -4.2405690539027645e-02 4.5681276050095282e-02
      -1.9933597689804794e-02 -2.9338877751031615e-02
      1.3975204144543993e-02 6.3523776287027021e-03
      -1.1290203883216045e-01 -5.4568571889467815e-02
      3.6032205036673347e-03 -3.6397523644773190e-03
      2.3974086099255516e-02 -3.5949865376405425e-02
      2.0923029995743542e-02 -1.0790056496444217e-02
      1.5070626744196059e-02 -6.6996328252801746e-03
      5.5843979684166288e-02 7.1831919980175810e-02
      -3.5947368708153390e-02 2.4687561543000634e-02
      6.8907919347529979e-04 4.7659736124906156e-02
      3.2166267315897980e-02 1.0015797683019800e-02
      3.6596148965365456e-02 2.0035604498042273e-02
      -9.4760655134911304e-02 -1.1900398458352498e-02
      -1.7636337357258874e-02 5.8528570060247337e-02
      1.0851125729362298e-02 -1.6977390029049907e-02
      -6.9444993289592555e-02 -1.3466301997517754e-02
      2.8456250335716516e-02 -3.7423836827642887e-02
      -6.7871565318816898e-02 6.3472557945372488e-02
      -2.7545063324226671e-02 3.8791738279324669e-04
      -2.1512332689554190e-02 1.5261467173434327e-02
      6.0677180454893490e-03 -1.7324562619049053e-02
      -7.8511369503367692e-03 2.7683037503899149e-03
      -4.2373943512116034e-02 4.5554497438011377e-02
      -9.2516220825127494e-03 3.3515059007968542e-02
      -2.3040896320790299e-02 5.5612063041036129e-02
      2.1971139048485220e-02 -6.7620331144306158e-03
      -5.3094516549053679e-02 -7.8304500287627893e-02
      8.5276092252545330e-02 -4.7010295883225833e-02
      -7.9030756181301065e-02 -3.8443991647064288e-02
      -1.4295719505833176e-02 -3.8627339699518724e-02
      -2.3774585264245231e-02 -4.6766655193618147e-02
      2.2561768885461842e-02 -7.5660164471455238e-03
      6.7507045162758669e-02 9.2634443422150176e-03
      -4.7913082029387377e-02 6.3079570356151027e-02
      -8.0208859200172081e-02 1.6755895657388720e-02
      -9.7572045502150290e-02 -1.1343058075610565e-01
      -1.6337856643674677e-02 3.8031048111609032e-02
      -4.8637478424854830e-02 -1.0152916520108335e-01
      -5.2357404842712729e-02 -6.2100496875313368e-04
      -2.8450524007371580e-02 -1.3501516928430492e-02
      -8.4665936003427752e-03 -3.3281596578859977e-02
      -6.3105954208415818e-02 -3.5935056971538017e-02
      1.7337493136910992e-02 4.8201169869721824e-02
      3.0828811729425542e-02 -4.8358832266619620e-02
      -5.2483143411551940e-03 -2.3939493233282351e-02
      -2.6715742472210695e-02 9.8678228551682998e-02
      3.1919536523317742e-02 8.7960357272001731e-04
      1.6726575490222086e-02 5.1646906419408429e-03
      -7.4240199393364917e-02 1.9150937148495178e-02
      -2.7270719443735700e-03 4.6219615162514112e-02
      -3.9805479900466151e-02 2.0265700511866457e-03
      2.9616370505315952e-02 -1.0786126659782541e-01
      2.4835831119899360e-02 1.9968706999727779e-02
      8.2567088353455539e-02 4.3470650500036088e-02
      2.5866956812226647e-02 -5.3694322954942697e-02
      -2.4796807384200623e-02 2.3476046894310661e-02
      1.9428890053335274e-02 -4.3162643965437154e-02
      -3.8119636694572342e-02 -3.5743514507510836e-02
      -1.3172681873026643e-01 1.9599485809966826e-02
      -3.0522931999375932e-02 -1.2929053939467054e-02
      -2.8407598240728030e-02 -1.8805337920818642e-02
      5.6276642547856671e-02 -1.2119053926009317e-02
      -1.1459048396867878e-01 1.1447853741134552e-02
      -6.5332588988645079e-02 1.4960095061388661e-02
      -3.3877691679362137e-02 1.1868162060259445e-02
      -9.4357394078947079e-03 -1.6203643565964272e-02
      -5.7028218868022972e-02 1.3328375035162762e-02
      3.2022085931676478e-02 1.1022797918546181e-02
      -5.8981580101067174e-02 -6.5832547978793357e-02
      8.1917007199821978e-02 -5.1633211715331299e-02
      6.0023173685974868e-03 3.7646620523924340e-02
      1.5973420296773819e-02 4.3482804686289324e-02
      4.5534169662527187e-03 4.2779249067159013e-02
      4.0747956378933491e-02 1.3970526619364456e-02
      8.8115592936581100e-03 -5.5468510245612113e-02
      -5.7649865600033282e-03 -4.0654829548085858e-02
      -1.2216096822182876e-01 -3.6699819555830675e-02
      5.0998071726104668e-02 -9.0243139906051976e-03
      -6.1751996459520628e-03 -1.2255214707315408e-02
      -8.8129513770540922e-03 -2.1643659465682011e-03
      1.7098037389702451e-02 -9.1292402611720294e-02
      -7.2107124685698507e-02 2.7615117287910027e-03
      -4.5083030002594209e-03 1.7684722919299775e-02
      -4.4595802183798237e-02 1.6329469485778941e-02
      5.7354769252396685e-03 -7.5158025492278761e-03
      -2.0353027359073378e-02 -2.5723302656213400e-02
      -1.7276634891677724e-02 5.7418393545191231e-02
      -3.3952074274007905e-02 -2.3054788237730682e-02
      -2.5734700846047551e-02 7.8472416751420179e-02
      6.3291306705003852e-02 -3.3093524425060819e-02
      -9.1217888656061688e-02 -5.6566457296164385e-02
      6.1707717134814131e-03 -6.3388524827222527e-03
      -2.7720516356451144e-02 -3.0203888426834736e-02
      -2.7215195585956042e-02 -4.2894679360076474e-02
      -1.2844482962024201e-02 -5.0239489156760291e-02
      -1.7808573821751698e-03 -1.2061898017240738e-02
      1.0673141705378869e-02 -4.1096653320098951e-02
      2.7528948267683286e-02 -5.5009096438111277e-03
      -9.0467985083084925e-03 -1.7530180047490219e-02
      -2.5791994285007370e-03 2.4937306544773032e-02
      -1.8492639629753553e-02 1.5243055667603544e-02
      2.9246668658349955e-03 -9.5470005247546372e-03
      1.5918856974814384e-02 1.0037959098845677e-02
      -2.8914200749882071e-02 -5.5384988606909678e-02
      -1.3985105087891919e-02 -1.1286626388525194e-02
      4.2730964998783007e-03 2.1663976431436176e-02
      -1.6489467541281118e-02 -7.0312437428558355e-05
      8.8670107963177234e-03 -6.0455422308586908e-03
      -3.4368509922923923e-02 2.3726599777340276e-02
      -2.7699926573611120e-02 1.2946862253990570e-02
      2.4434003039893008e-02 -4.3304830403275166e-02
      3.5785559897970012e-04 -2.5706594137928987e-02
      -6.7438252438224280e-02 2.1282499793792542e-02
      1.9410881944850764e-03 4.4536214374920009e-02
      -2.7583275162434709e-02 -3.2195539521121398e-02
      -1.7032915130734232e-02 6.0738400298106657e-03
      2.7054771317912518e-02 -7.6979481598093502e-03
      4.0810666196143951e-02 5.6273454466706195e-03
      2.9495097261498571e-02 -2.2210897740067893e-02
      2.3143171898475454e-02 2.3260884825859876e-02
      2.3369762775913530e-02 -1.9611116905917200e-02
      1.7025977378944766e-02 -3.0841732354148898e-02
      -2.4876254482919035e-02 1.8527971523123642e-02
      -1.6997072286901487e-02 1.5108445021849528e-03
      3.2571945153305401e-02 -1.8522705880883703e-02
      4.0462631879539329e-02 1.7937718618092874e-02
      -5.3835881824392071e-04 -1.1279155682284004e-02
      1.0720774673837660e-02 -1.1872070100369192e-02
      2.3705612395905590e-03 7.4443127955795664e-03
      -1.2618256638633956e-02 -7.4892731346415144e-03
      5.2734548176446031e-02 3.9935108526980012e-02
      -4.4235493877885163e-03 7.0482002340150843e-03
      -5.0120091957505858e-02 -2.4272952807524593e-02
      -2.2241452983420198e-03 2.1203982643181095e-02
      -1.3349130665263891e-03 4.1917943065858498e-02
      2.5858327414752386e-02 -1.5983935884795981e-02
      3.1567460022932328e-02 3.2111780232046118e-02
      -2.1597920109553709e-02 5.4220912877532002e-03
      7.8703975077890464e-03 -3.6971342953339391e-02
      -3.3109538560794349e-02 -7.3720831544948854e-03
      -2.7676351859397038e-02 8.9074142891683826e-03
      -1.3793971982212980e-03 1.2471819545956877e-02
      1.5093757886906010e-03 -1.3464985201507906e-02
      -2.4376305252215451e-02 2.4808129961689615e-02
      3.7950505755782603e-03 1.8233624412791645e-03
      -1.2835276648828713e-02 -1.5126426269947521e-02
      1.9022827354251568e-02 3.7718903678663297e-02
      -6.6707406961524661e-03 6.4118210694678754e-02
      6.5719852720300710e-03 1.9058028744053764e-02
      5.4961685529268337e-03 -4.8547034301619850e-02
      6.1338285961930923e-03 7.9023359402010367e-03
      4.5348553571161144e-03 2.4139898296188546e-02
      -1.1479280251702657e-02 -1.2880152355266185e-02
      2.7148111438719955e-02 -1.0176504687309051e-02
      -1.7533882038452069e-02 -7.0892245813778069e-03
      -8.3938323931138838e-03 1.1338774238644135e-02
      2.7862276044393931e-02 5.0698486295947913e-02
      -1.1062282907869269e-02 1.8403949162680528e-02
      4.5746695893225026e-02 2.9843715661073945e-02
      1.6115094771018131e-02 -2.3223778825092686e-02
      -4.2669638293604008e-05 -6.9140819309565837e-02
      -6.3693396684508198e-03 -1.2457454520763370e-02
      -1.8530481828141612e-02 -2.3690900808469296e-02
      -3.9609822325709511e-02 1.8724220963852558e-03
      -1.8691486486669458e-02 7.1833796137290727e-04
      -2.4733974574256174e-03 -4.7290747031966283e-03
      1.0336014451059285e-02 -2.9076507331004319e-02
      1.4760938986881566e-03 -9.4984858247524576e-02
      -2.1590547434402575e-02 -9.0723903774674569e-02
      -1.2113490669712269e-04 -4.7684785250830412e-02
      3.1228889220066430e-02 2.6372344171579232e-02
      4.0657964320609058e-02 9.9552772379503493e-04
      -3.5909082115109740e-03 -5.7101176596483269e-02
      -2.2590185467425373e-03 -1.3509486181662214e-02
      -1.9284432744042308e-02 -4.7957203760112824e-02
      -7.9028866217608022e-03 -2.0006294801337886e-02
      -1.3820225076642760e-02 3.8623255651601719e-02
      7.0981093124757658e-02 -1.4641330769768041e-03
      -3.9672417463395199e-02 -1.6723211144538504e-02
      5.2847558367602318e-03 2.5480622824143088e-02
      -3.8506805210352948e-02 2.9308659592564047e-02
      5.2737663257116846e-02 3.5681316069070761e-02
      2.0179019641919291e-02 2.3357699857946463e-02
      5.3096166413871611e-02 8.5163866378687933e-03
      1.6176829180556785e-02 -6.4570548140470462e-04
      1.4810494671794431e-02 2.6005750927511485e-02
      -5.7445253332880655e-02 -6.7061302612778886e-02
      7.7508162574653192e-02 2.8873416764373400e-02
      2.4652084551845282e-02 5.9083538766142779e-02
      -3.4894569961557070e-02 -3.8300190564447608e-03
      2.4722603260274412e-03 3.5395610117525823e-02
      -1.2131963572947720e-02 4.2318554489080715e-02
      2.9347841565004688e-02 4.7711709382875925e-03
      -3.0726721489056957e-02 4.8041230979520823e-02
      -5.5675723718610876e-02 -8.1541055575518780e-03
      -7.1774945920285169e-03 6.7616009454018799e-02
      -4.5682373857820688e-02 -2.8658151386916200e-02
      4.6017928099252965e-03 -2.4217427776487870e-02
      1.1361683665418263e-02 1.9495885825405956e-02
      3.3972643960461152e-02 -4.0916375549660405e-02
      -2.2189730249383696e-02 4.3904001506332446e-03
      -6.9371773136092871e-02 7.2575065355181146e-03
      1.2873594243201291e-02 1.3961887505001328e-02
      3.9146885137010673e-02 -7.7417383573819380e-03
      -8.4131653285998090e-03 -1.2325466704215721e-02
      2.1252162793632293e-02 2.2432572890321648e-03
      -1.5544758998465713e-02 -5.1428755563718974e-02
      -4.1494991626874443e-02 -1.1316623103180778e-02
      -4.8066209218597736e-02 -3.1188918072583262e-02
      3.4885980293925749e-02 -1.6660635053680036e-02
      -2.2589535191435764e-03 6.8726050788384591e-02
      -2.7325648345975541e-02 -1.9313310872432723e-02
      -2.4668450035751271e-02 -3.8967074037351536e-02
      -1.3001875348520013e-02 1.7788443264334753e-02
      5.3389264636172860e-03 -2.8804175972608703e-02
      -1.7274486873280440e-02 1.1429736154148032e-02
      -3.0531636566187639e-03 7.2955232435425829e-02
      -1.3905879167460998e-02 -4.8915359785262728e-03
      8.0267368724755012e-03 1.2384772460453873e-02
      4.8406633645124368e-02 -2.7409795945581183e-02
      -4.7189977370453363e-02 7.5944066400841240e-02
      -6.8285954978232880e-02 2.2053793131314291e-02
      1.7797455699955375e-02 5.1901289136749833e-03
      8.8270551960630411e-03 -1.3000859148076907e-02
      1.5942721835962438e-02 -4.1629930828423291e-02
      -9.9184595322280786e-02 5.8686787656903397e-02
      -3.5574354924579138e-02 -4.2761761972490101e-03
      -1.3257605566732159e-01 -4.2536944398534990e-02
      -2.1352006992795498e-02 -1.0984519269435708e-02
      -3.6690123721756653e-02 -6.1766171844283083e-02
      -2.3211530908473967e-02 -4.1460732903381120e-02
      -5.3372155391071360e-02 -1.0752451919582244e-01
      -6.6453541298755220e-02 -1.3570898391016067e-01
      -1.4473753628650905e-02 -4.2803624862869337e-02
      1.1691624033752051e-02 9.0357618454994834e-02
      4.6818547233746940e-02 -7.8612475562641962e-03
      2.4375629123901919e-02 -5.6833361969447320e-02
      1.0488930473996167e-02 1.0651637790729295e-02
      -1.2926386720980848e-02 -1.2923926655999745e-02
      1.7348237666550866e-02 -1.4951207569659605e-02
      -3.7686669948096822e-02 4.2679428077278439e-02
      7.9472135042755618e-02 3.3415443581531389e-02
      -9.5320213930758249e-02 4.4866366813158337e-02
      4.8525253503969190e-02 -3.1495310478777745e-02
      2.4215159337048604e-02 4.0543380654583502e-02
      4.0432260952155262e-02 4.7651268948555058e-02
      -1.5106287060934795e-02 -2.9280430943870943e-02
      3.3399800392961615e-02 -9.2215719787652733e-03
      -2.3952393937964209e-02 -1.6463503801501418e-02
      3.8626927258840059e-02 -5.7478378834164907e-02
      -2.0919090867756313e-02 -5.2975017293543154e-02
      3.8004100245635782e-02 -2.3643019672508567e-02
      1.0835680593414007e-02 3.2897755500336592e-02
      1.3720232344829748e-04 1.0695244108317084e-02
      -1.4245821338597271e-02 2.6191304042784538e-02
      -6.6776386822439721e-02 9.1871831813165605e-02
      -3.7037994840055627e-02 -2.4589855640189083e-02
      2.2084993152639773e-02 4.6341258781297169e-02
      -7.7166855533143397e-02 -1.9040487578696932e-02
      -1.6817836903451840e-02 9.3434727183594898e-02
      -4.6835387075329103e-02 1.8249827620825353e-02
      1.7966107824740538e-02 -6.1799727002218266e-02
      2.5102551799934144e-02 -1.3937039824592540e-02
      5.1571519782675046e-02 -5.8907408051035357e-04
      -4.6542450079084009e-02 -6.9364485445787445e-03
      -4.9797063624307462e-02 -2.9469441474841547e-02
      2.4387283020848600e-02 4.2182091195068543e-02
      5.2118176329634378e-02 2.7278177794334709e-03
      -2.1722306503084684e-03 -1.4462476498968710e-02
      7.2097233605610989e-02 -1.3514329474459507e-02
      -5.2815917584632548e-02 -6.5974570945086894e-02
      -1.1114339580523911e-02 -3.1743514005169296e-02
      -9.2473869752907369e-03 -1.9929399580190663e-02
      1.0997890610127696e-02 5.5310566722513339e-02
      -5.2143070551875247e-02 2.6863616996368276e-02
      -2.8908925241059938e-02 -4.1907379050572895e-02
      -4.2700385677639847e-02 -4.9774931489579434e-02
      2.0525624994869058e-02 4.7318595688298727e-03
      3.1111030337066154e-02 -2.3915737209641290e-02
      2.4027411038369723e-02 -3.3843402150074670e-02
      -2.3489485351678111e-02 8.1465454777938207e-02
      -3.8099202236560525e-03 -8.2512291237261309e-02
      -7.8520472482120796e-02 -1.1033313961532260e-01
      -7.7404994340003292e-03 -6.9512508121774036e-02
      -1.0338089057740751e-01 7.4818133692566957e-02
      -4.3745903634941602e-02 -6.8593267224499547e-03
      8.4633132403243334e-03 4.5967057257893996e-02
      6.3808582490720453e-02 4.4386261578007432e-03
      2.4238611929913344e-02 -1.9840957608393810e-02
      -5.5841314067311715e-02 3.8772672760067725e-02
      -1.0051716693940278e-01 6.9776369554943119e-03
      -1.1045875789013833e-01 -7.1237184036211834e-02
      -2.6131539343362487e-02 -4.0576225682449453e-03
      -6.7180783669988600e-02 -4.2918333770288523e-02
      3.6389003666821539e-03 1.0082576224691655e-02
      -9.7718038732138579e-03 -3.7925343310505170e-02
      -1.9205647089316696e-02 -6.3177421329358413e-02
      -3.6849450935797293e-02 -1.4328432645270818e-02
      5.4215323620738172e-02 7.1742649599730715e-02
      1.7059552638605160e-02 -2.1507526068825857e-02
      1.8912942286257887e-02 2.8542789119279256e-03
      -1.2256823165024484e-02 5.0484769287818719e-02
      7.3551281958421826e-03 -2.6766145595734585e-02
      2.4037939505584558e-02 -7.4410050523935328e-03
      -7.7856473526395603e-02 6.4326469878672007e-02
      6.5534770354574931e-02 3.2107066178261465e-02
      -7.6600150667414907e-02 4.0132504593392175e-02
      5.0112537993287444e-02 -1.0976937078909030e-01
      -2.1310273695226587e-03 8.6352394938483665e-02
      3.7086589473589678e-02 3.0877635563921098e-02
      2.5286092554827319e-02 -7.6125144174478314e-03
      3.9313713472531681e-02 -1.6314547954268496e-02
      2.1211643006709118e-02 -2.1072608083009276e-02
      -2.4487900970402855e-02 -4.2454752142636193e-03
      -3.9173673131208314e-02 -5.2447230357124265e-02
      3.8761612531695869e-02 4.9646079878913852e-03
      2.5136638175967869e-03 1.4861582072012106e-03
      -1.6634081439601888e-02 1.5742428011933558e-02
      -7.8515035329687566e-02 1.3679208035273950e-02
      -4.7938490512919048e-02 7.4282501900639203e-02
      7.6303439055868975e-03 -2.7054435647212152e-04
      -6.5534670790805055e-03 -1.8468683132082005e-02
      -6.0149301418486387e-02 1.3021790211130580e-03
      1.8591323637881272e-02 4.0925320705872466e-02
      -8.5378515455405438e-02 -1.9369756656985142e-02
      3.7041623946467567e-02 -7.4745599748157629e-02
      7.0913023564448729e-02 -1.6739288122034090e-03
      3.9938739064978940e-02 -2.7129883382791604e-02
      -2.4276192607872674e-02 -8.8492624072554291e-03
      -4.1824152710277069e-04 -2.9315813174238876e-02
      2.3852355433826098e-04 1.1964116070494758e-02
      1.0075097795353111e-02 -4.8486587193383585e-02
      -1.1152358201164810e-01 -5.0700395434306478e-03
      7.1476300824412226e-02 -2.2006460574648907e-02
      -4.5593468452577265e-02 -5.3612243458630089e-02
      1.8537020673169584e-02 -2.0229226492708745e-02
      -2.5582299792182763e-02 -2.7461818964890514e-02
      -2.3065381379709923e-02 2.5409331386371210e-02
      -4.9429937654390403e-02 1.8824438689718005e-03
      -2.7330085406094527e-02 -3.7872011305830539e-02
      -1.0755107765678300e-02 -5.3116491603778571e-02
      -1.0912254223682250e-02 1.0428410117860552e-02
      5.2182593844624960e-02 -3.9446349397796877e-02
      -5.2285995546559900e-03 -1.9898756464118730e-02
      -2.3297241001592472e-02 1.1527967430939172e-01
      4.8461142745965288e-02 -4.2195536468941759e-02
      -9.3787209594165241e-02 -6.7428449930754628e-02
      -3.6167329695300010e-02 -2.9522786229277807e-02
      -8.3328556674857668e-02 3.2327706828919993e-02
      -2.2053158718453144e-02 4.0761999919728613e-02
      -4.5215519665828305e-02 -1.2194620958524477e-03
      -1.3727903554647236e-02 -1.5635382013572601e-02
      -5.0965042604389388e-02 8.0320908680574302e-03
      7.6428014692329335e-02 6.6484583863463719e-03
      1.1201049064163082e-02 -1.2738575461239920e-02
      5.6227884071028258e-02 1.4498592995949661e-02
      -2.3088737072658377e-02 -7.3475364320912135e-03
      -9.4317158855510910e-03 9.2904433251755542e-02
      3.6556993404205998e-02 1.4265464984563244e-02
      8.4151611593343487e-02 1.3155312433624680e-02
      3.5178227369669642e-02 7.5328595420664793e-02
      2.6458889592483686e-02 -2.7304096301889486e-02
      -3.5120181364753908e-02 -2.8779140603622039e-02
      -3.8380350881152769e-02 2.3525975698290426e-03
      6.5437069330038428e-02 1.0031590111689505e-01
      1.0882840392381679e-02 -5.5594091487444118e-02
      -1.4821802254637643e-02 -2.0345440439011254e-02
      -4.2223182073419033e-02 -3.6882502503274482e-02
      -5.5351633933999445e-02 6.6596184362151645e-02
      2.6468909721398499e-02 -3.9574157257982030e-02
      4.7044607090708235e-02 6.0662093577749578e-02
      -5.2135157277042902e-03 -1.0953027723481359e-02
      6.2376672239978760e-02 -2.0370541644598918e-02
      -3.4800380655063481e-02 8.5973028699491676e-03
      -1.0697115673366486e-02 7.3322797921571231e-02
      5.4836088707783948e-04 -3.3398327624931425e-03
      7.6433878782689424e-02 4.5226473434175074e-02
      5.4968639307096466e-02 1.9206235937706262e-02
      8.3808019214657359e-02 7.6311860351602756e-02
      -8.0885493726438565e-02 -4.0928902899874255e-02
      4.3041961993300216e-02 7.7915284628124089e-03
      -3.6663578555383859e-02 5.8550883703146893e-02
      3.6092270316753799e-02 -6.7287952481772367e-03
      2.2207178319364525e-02 6.9655329891571874e-02
      2.8400104747318734e-02 -5.3525034172778228e-02
      -1.8176961894002090e-02 3.6296437711717755e-02
      -1.5452148813644678e-02 -7.3774587128190836e-02
      -2.4978268342655929e-02 3.7063585061629829e-02
      3.6323479150444524e-02 1.9457655657419356e-02
      -5.4234584717129934e-02 2.6890552854808222e-02
      -7.2686029151039857e-04 1.7594001977329927e-02
      7.2304308489856833e-02 2.2150405179212931e-02
      2.5398302075365271e-02 -2.6856610168338371e-02
      -8.0583931338133637e-03 -8.7387894486636291e-03
      1.9131233640475021e-02 3.2554387045271457e-02
      2.7992669427146583e-02 1.7218231790246629e-02
      -3.0975616977786543e-03 2.1320927820286897e-02
      -1.0650283327741983e-02 6.9132248657553963e-02
      5.0936601945899121e-02 2.5331115107394726e-02
      -3.3328682072240615e-02 -2.2857370283470226e-03
      -1.7186460482936490e-02 6.4216935883281506e-02
      2.6311961495261736e-02 8.8307840057717690e-02
      -1.4207777459037552e-02 -5.6186678895877674e-02
      1.3286593833038363e-02 2.0658623850486151e-02
      2.3722891757686718e-02 -4.7565515623386158e-02
      1.8385851366293726e-02 1.8109412716206121e-02
      1.6362557438561829e-02 -1.4577141452032970e-02
      3.8517850021594698e-02 8.4390610863778678e-02
      -2.0125124885458544e-02 6.8439970489474096e-03
      -2.9715967010135923e-02 3.4937426541594103e-02
      -1.3206795460170390e-02 -3.8331301157075920e-02
      1.7007007341050949e-02 -5.3113594010378906e-02
      -9.7913561524312201e-02 -4.8816944313258621e-02
      4.6530204094059596e-03 -3.6946257253649974e-04
      -3.9351543802429358e-03 -4.5516857015531736e-02
      2.7135355378594111e-02 2.0735085200537784e-04
      4.9775557641566432e-03 -5.0501718187400908e-02
      6.0833787168179033e-02 -2.4840836574131372e-02
      -4.1631078946934061e-02 -6.8310263065682192e-03
      4.2709081930055834e-02 9.8747333191721645e-03
      -1.1808586563148721e-02 4.1279353692619737e-02
      -4.5264555102114273e-02 7.3239885536844601e-02
      2.8039524079762602e-03 6.8166810325555926e-03
      5.3040551412142083e-02 -1.8394396631750992e-02
      8.4717706084974555e-03 5.5790527791362669e-03
      -3.4936578158164699e-02 -1.2506016464622636e-02
      3.8530839116628045e-02 4.6847831088959235e-02
      5.1287912558462736e-03 -2.0568194966259935e-02
      -5.1356986078202473e-02 6.9872382898342439e-02
      -2.8842920174601609e-02 -4.2378371158047837e-02
      2.0828846663549387e-02 -6.3631601223599732e-02
      -5.2668990518422748e-02 -7.2200635824914330e-02
      -7.1068642943157817e-02 7.1387870481963780e-02
      1.0186018552985211e-02 4.5801132075428762e-02
      -2.3169454316409675e-02 -4.0062695815181945e-02
      2.8761630415975448e-02 -7.7367972039393981e-02
      2.8147744466313105e-02 4.8907275984642687e-02
      8.7862476573908254e-04 -2.5071739818449356e-02
      1.6776885029975992e-02 3.7040748056540923e-02
      2.2152932229927442e-02 2.8706948722656202e-02
      6.2478892904026209e-02 -1.8719293637846270e-03
      4.4198702690728259e-02 4.7339435802691052e-02
      -1.0593019083417697e-02 3.2528622915528736e-02
      -2.2287286756231983e-02 1.1618936258669089e-03
      -3.7339554514600734e-02 -2.1083372049152824e-02
      2.9527204767528268e-02 6.5831897320463087e-02
      3.5499735720160207e-02 2.5662172817441285e-02
      -2.8582941744529782e-02 -2.5169808695635693e-02
      6.6386789820616987e-03 4.1281234463396578e-02
      -2.6057696592041827e-02 2.9529890353565576e-03
      2.8019426414264890e-02 2.4441809726541697e-02
      1.6224316786832938e-02 1.9652293797991330e-02
      -7.6320521736451125e-02 -3.3813524143489725e-02
